<?xml version="1.0"?>
<opencv_storage>
<cascade>
  <stageType>BOOST</stageType>
  <featureType>HAAR</featureType>
  <height>30</height>
  <width>30</width>
  <stageParams>
    <boostType>GAB</boostType>
    <minHitRate>9.9500000476837158e-01</minHitRate>
    <maxFalseAlarm>5.0000000000000000e-01</maxFalseAlarm>
    <weightTrimRate>9.4999998807907104e-01</weightTrimRate>
    <maxDepth>1</maxDepth>
    <maxWeakCount>100</maxWeakCount></stageParams>
  <featureParams>
    <maxCatCount>0</maxCatCount>
    <featSize>1</featSize>
    <mode>BASIC</mode></featureParams>
  <stageNum>15</stageNum>
  <stages>
    <!-- stage 0 -->
    <_>
      <maxWeakCount>3</maxWeakCount>
      <stageThreshold>-1.3832625150680542e+00</stageThreshold>
      <weakClassifiers>
        <_>
          <internalNodes>
            0 -1 39 -1.2313739955425262e-01</internalNodes>
          <leafValues>
            8.0952382087707520e-01 -8.9132505655288696e-01</leafValues></_>
        <_>
          <internalNodes>
            0 -1 11 -4.1706919670104980e-02</internalNodes>
          <leafValues>
            4.8730245232582092e-01 -8.1587702035903931e-01</leafValues></_>
        <_>
          <internalNodes>
            0 -1 46 1.0326641495339572e-04</internalNodes>
          <leafValues>
            3.2393956184387207e-01 -1.</leafValues></_></weakClassifiers></_>
    <!-- stage 1 -->
    <_>
      <maxWeakCount>3</maxWeakCount>
      <stageThreshold>-1.5677372217178345e+00</stageThreshold>
      <weakClassifiers>
        <_>
          <internalNodes>
            0 -1 46 -5.9832462284248322e-05</internalNodes>
          <leafValues>
            -9.5373290777206421e-01 2.1978022158145905e-01</leafValues></_>
        <_>
          <internalNodes>
            0 -1 12 -8.9649170637130737e-02</internalNodes>
          <leafValues>
            6.2273365259170532e-01 -8.1268012523651123e-01</leafValues></_>
        <_>
          <internalNodes>
            0 -1 25 1.3418990420177579e-04</internalNodes>
          <leafValues>
            2.5546139478683472e-01 -9.7483724355697632e-01</leafValues></_></weakClassifiers></_>
    <!-- stage 2 -->
    <_>
      <maxWeakCount>4</maxWeakCount>
      <stageThreshold>-1.0680460929870605e+00</stageThreshold>
      <weakClassifiers>
        <_>
          <internalNodes>
            0 -1 47 -5.0347693264484406e-02</internalNodes>
          <leafValues>
            4.9473685026168823e-01 -8.8053947687149048e-01</leafValues></_>
        <_>
          <internalNodes>
            0 -1 25 -3.2435531466035172e-05</internalNodes>
          <leafValues>
            -8.4458887577056885e-01 2.7343434095382690e-01</leafValues></_>
        <_>
          <internalNodes>
            0 -1 28 9.2551908892346546e-06</internalNodes>
          <leafValues>
            2.7852922677993774e-01 -9.5683300495147705e-01</leafValues></_>
        <_>
          <internalNodes>
            0 -1 10 -5.4049924015998840e-02</internalNodes>
          <leafValues>
            4.9589201807975769e-01 -6.8512773513793945e-01</leafValues></_></weakClassifiers></_>
    <!-- stage 3 -->
    <_>
      <maxWeakCount>4</maxWeakCount>
      <stageThreshold>-1.3061174154281616e+00</stageThreshold>
      <weakClassifiers>
        <_>
          <internalNodes>
            0 -1 48 -5.3799491375684738e-02</internalNodes>
          <leafValues>
            8.1481480598449707e-01 -8.4430027008056641e-01</leafValues></_>
        <_>
          <internalNodes>
            0 -1 59 -8.3420054579619318e-06</internalNodes>
          <leafValues>
            -9.8141437768936157e-01 1.9698511064052582e-01</leafValues></_>
        <_>
          <internalNodes>
            0 -1 7 -2.4986860807985067e-05</internalNodes>
          <leafValues>
            -9.5273834466934204e-01 2.9285144805908203e-01</leafValues></_>
        <_>
          <internalNodes>
            0 -1 50 -8.0156141848419793e-06</internalNodes>
          <leafValues>
            -9.9565112590789795e-01 2.9393613338470459e-01</leafValues></_></weakClassifiers></_>
    <!-- stage 4 -->
    <_>
      <maxWeakCount>4</maxWeakCount>
      <stageThreshold>-1.4120618104934692e+00</stageThreshold>
      <weakClassifiers>
        <_>
          <internalNodes>
            0 -1 42 -4.1152585297822952e-02</internalNodes>
          <leafValues>
            4.3999999761581421e-01 -8.8189738988876343e-01</leafValues></_>
        <_>
          <internalNodes>
            0 -1 2 8.2959316205233335e-04</internalNodes>
          <leafValues>
            1.1132251471281052e-01 -9.8364174365997314e-01</leafValues></_>
        <_>
          <internalNodes>
            0 -1 13 6.6194322425872087e-04</internalNodes>
          <leafValues>
            2.0697432756423950e-01 -9.2883771657943726e-01</leafValues></_>
        <_>
          <internalNodes>
            0 -1 50 1.4486574400507379e-05</internalNodes>
          <leafValues>
            3.0917137861251831e-01 -8.4846127033233643e-01</leafValues></_></weakClassifiers></_>
    <!-- stage 5 -->
    <_>
      <maxWeakCount>2</maxWeakCount>
      <stageThreshold>-1.3703013658523560e+00</stageThreshold>
      <weakClassifiers>
        <_>
          <internalNodes>
            0 -1 50 7.3575151873228606e-06</internalNodes>
          <leafValues>
            -4.5140388607978821e-01 -9.8208957910537720e-01</leafValues></_>
        <_>
          <internalNodes>
            0 -1 14 -7.6178010203875601e-05</internalNodes>
          <leafValues>
            -9.1889744997024536e-01 1.0196691751480103e-01</leafValues></_></weakClassifiers></_>
    <!-- stage 6 -->
    <_>
      <maxWeakCount>6</maxWeakCount>
      <stageThreshold>-1.8328484296798706e+00</stageThreshold>
      <weakClassifiers>
        <_>
          <internalNodes>
            0 -1 21 -1.0526753216981888e-01</internalNodes>
          <leafValues>
            3.2584270834922791e-01 -8.5823756456375122e-01</leafValues></_>
        <_>
          <internalNodes>
            0 -1 53 -2.0286221988499165e-03</internalNodes>
          <leafValues>
            1.5307551622390747e-01 -8.5128414630889893e-01</leafValues></_>
        <_>
          <internalNodes>
            0 -1 45 -1.1388596612960100e-04</internalNodes>
          <leafValues>
            -9.5002681016921997e-01 1.2829847633838654e-01</leafValues></_>
        <_>
          <internalNodes>
            0 -1 3 1.2006545148324221e-04</internalNodes>
          <leafValues>
            2.1967087686061859e-01 -8.4248763322830200e-01</leafValues></_>
        <_>
          <internalNodes>
            0 -1 54 1.3076915820420254e-05</internalNodes>
          <leafValues>
            -4.8182147741317749e-01 4.6107897162437439e-01</leafValues></_>
        <_>
          <internalNodes>
            0 -1 1 -2.2498299367725849e-03</internalNodes>
          <leafValues>
            -9.3237501382827759e-01 3.0037882924079895e-01</leafValues></_></weakClassifiers></_>
    <!-- stage 7 -->
    <_>
      <maxWeakCount>5</maxWeakCount>
      <stageThreshold>-1.7033648490905762e+00</stageThreshold>
      <weakClassifiers>
        <_>
          <internalNodes>
            0 -1 37 -2.1159243583679199e-01</internalNodes>
          <leafValues>
            9.0909093618392944e-02 -8.8888889551162720e-01</leafValues></_>
        <_>
          <internalNodes>
            0 -1 43 1.7045933753252029e-02</internalNodes>
          <leafValues>
            -7.5392860174179077e-01 1.7946659028530121e-01</leafValues></_>
        <_>
          <internalNodes>
            0 -1 40 1.4934627106413245e-03</internalNodes>
          <leafValues>
            -5.0491875410079956e-01 4.5087036490440369e-01</leafValues></_>
        <_>
          <internalNodes>
            0 -1 31 -6.0086473822593689e-03</internalNodes>
          <leafValues>
            2.9669830203056335e-01 -7.5777220726013184e-01</leafValues></_>
        <_>
          <internalNodes>
            0 -1 23 -2.3760207113809884e-05</internalNodes>
          <leafValues>
            -9.1430228948593140e-01 2.6874837279319763e-01</leafValues></_></weakClassifiers></_>
    <!-- stage 8 -->
    <_>
      <maxWeakCount>4</maxWeakCount>
      <stageThreshold>-1.7015312910079956e+00</stageThreshold>
      <weakClassifiers>
        <_>
          <internalNodes>
            0 -1 41 -7.6073572039604187e-02</internalNodes>
          <leafValues>
            2.4369747936725616e-01 -8.8362920284271240e-01</leafValues></_>
        <_>
          <internalNodes>
            0 -1 36 -2.3755119764246047e-04</internalNodes>
          <leafValues>
            3.2853373885154724e-01 -7.5388664007186890e-01</leafValues></_>
        <_>
          <internalNodes>
            0 -1 8 -6.3807070255279541e-03</internalNodes>
          <leafValues>
            3.8984689116477966e-01 -6.5707695484161377e-01</leafValues></_>
        <_>
          <internalNodes>
            0 -1 56 4.1780745959840715e-05</internalNodes>
          <leafValues>
            -4.5386230945587158e-01 5.9926688671112061e-01</leafValues></_></weakClassifiers></_>
    <!-- stage 9 -->
    <_>
      <maxWeakCount>5</maxWeakCount>
      <stageThreshold>-1.8161684274673462e+00</stageThreshold>
      <weakClassifiers>
        <_>
          <internalNodes>
            0 -1 38 7.2497084736824036e-02</internalNodes>
          <leafValues>
            -8.1801468133926392e-01 5.1111114025115967e-01</leafValues></_>
        <_>
          <internalNodes>
            0 -1 32 2.6433127932250500e-03</internalNodes>
          <leafValues>
            -6.8305659294128418e-01 1.4129461348056793e-01</leafValues></_>
        <_>
          <internalNodes>
            0 -1 33 -3.6600459134206176e-04</internalNodes>
          <leafValues>
            -1. 1.6921482980251312e-01</leafValues></_>
        <_>
          <internalNodes>
            0 -1 16 -1.2957614671904594e-04</internalNodes>
          <leafValues>
            -9.0385222434997559e-01 2.7477553486824036e-01</leafValues></_>
        <_>
          <internalNodes>
            0 -1 55 2.8018213342875242e-03</internalNodes>
          <leafValues>
            -7.5908750295639038e-01 2.1023471653461456e-01</leafValues></_></weakClassifiers></_>
    <!-- stage 10 -->
    <_>
      <maxWeakCount>5</maxWeakCount>
      <stageThreshold>-2.0170245170593262e+00</stageThreshold>
      <weakClassifiers>
        <_>
          <internalNodes>
            0 -1 62 -1.1804123967885971e-01</internalNodes>
          <leafValues>
            1. -7.9856115579605103e-01</leafValues></_>
        <_>
          <internalNodes>
            0 -1 51 1.8262259662151337e-02</internalNodes>
          <leafValues>
            -7.6633310317993164e-01 4.2503654956817627e-02</leafValues></_>
        <_>
          <internalNodes>
            0 -1 0 -2.4674674496054649e-03</internalNodes>
          <leafValues>
            -9.2772644758224487e-01 1.4830771088600159e-01</leafValues></_>
        <_>
          <internalNodes>
            0 -1 5 1.4738249778747559e-01</internalNodes>
          <leafValues>
            1.9633258879184723e-01 -8.5442674160003662e-01</leafValues></_>
        <_>
          <internalNodes>
            0 -1 69 -2.6155863888561726e-03</internalNodes>
          <leafValues>
            -7.9677063226699829e-01 1.7416617274284363e-01</leafValues></_></weakClassifiers></_>
    <!-- stage 11 -->
    <_>
      <maxWeakCount>8</maxWeakCount>
      <stageThreshold>-1.7092266082763672e+00</stageThreshold>
      <weakClassifiers>
        <_>
          <internalNodes>
            0 -1 29 1.8256071209907532e-01</internalNodes>
          <leafValues>
            -8.2119816541671753e-01 5.0000000000000000e-01</leafValues></_>
        <_>
          <internalNodes>
            0 -1 20 -4.8334527015686035e-01</internalNodes>
          <leafValues>
            8.0235558748245239e-01 -4.3922513723373413e-01</leafValues></_>
        <_>
          <internalNodes>
            0 -1 9 -1.2637903913855553e-02</internalNodes>
          <leafValues>
            2.7134975790977478e-01 -6.5995740890502930e-01</leafValues></_>
        <_>
          <internalNodes>
            0 -1 65 1.0275300155626610e-05</internalNodes>
          <leafValues>
            1.5959836542606354e-01 -8.5741990804672241e-01</leafValues></_>
        <_>
          <internalNodes>
            0 -1 30 3.5712349927052855e-04</internalNodes>
          <leafValues>
            -3.7237629294395447e-01 4.0768569707870483e-01</leafValues></_>
        <_>
          <internalNodes>
            0 -1 58 4.7056702896952629e-03</internalNodes>
          <leafValues>
            2.3473007977008820e-01 -7.7108108997344971e-01</leafValues></_>
        <_>
          <internalNodes>
            0 -1 61 1.1253973469138145e-02</internalNodes>
          <leafValues>
            1.6369976103305817e-01 -8.6650270223617554e-01</leafValues></_>
        <_>
          <internalNodes>
            0 -1 27 -2.3697195574641228e-03</internalNodes>
          <leafValues>
            -8.1408476829528809e-01 1.2439741939306259e-01</leafValues></_></weakClassifiers></_>
    <!-- stage 12 -->
    <_>
      <maxWeakCount>8</maxWeakCount>
      <stageThreshold>-1.7146105766296387e+00</stageThreshold>
      <weakClassifiers>
        <_>
          <internalNodes>
            0 -1 64 -7.6614037156105042e-02</internalNodes>
          <leafValues>
            1. -7.9372197389602661e-01</leafValues></_>
        <_>
          <internalNodes>
            0 -1 4 -7.8830495476722717e-03</internalNodes>
          <leafValues>
            -3.9504650980234146e-02 -8.7024402618408203e-01</leafValues></_>
        <_>
          <internalNodes>
            0 -1 6 1.6157780191861093e-04</internalNodes>
          <leafValues>
            1.0236911475658417e-01 -9.1120195388793945e-01</leafValues></_>
        <_>
          <internalNodes>
            0 -1 49 -1.2189814879093319e-04</internalNodes>
          <leafValues>
            4.3532434105873108e-01 -3.7108498811721802e-01</leafValues></_>
        <_>
          <internalNodes>
            0 -1 68 1.5495626721531153e-03</internalNodes>
          <leafValues>
            2.1113957464694977e-01 -8.3139562606811523e-01</leafValues></_>
        <_>
          <internalNodes>
            0 -1 34 6.0399038375180680e-06</internalNodes>
          <leafValues>
            1.6657844185829163e-01 -7.8181463479995728e-01</leafValues></_>
        <_>
          <internalNodes>
            0 -1 66 2.4129936937242746e-03</internalNodes>
          <leafValues>
            -4.3686884641647339e-01 3.7602198123931885e-01</leafValues></_>
        <_>
          <internalNodes>
            0 -1 57 5.0983675464522094e-05</internalNodes>
          <leafValues>
            -3.6688297986984253e-01 4.6005380153656006e-01</leafValues></_></weakClassifiers></_>
    <!-- stage 13 -->
    <_>
      <maxWeakCount>6</maxWeakCount>
      <stageThreshold>-1.5349709987640381e+00</stageThreshold>
      <weakClassifiers>
        <_>
          <internalNodes>
            0 -1 60 8.4138169884681702e-02</internalNodes>
          <leafValues>
            -7.9657965898513794e-01 8.1818181276321411e-01</leafValues></_>
        <_>
          <internalNodes>
            0 -1 24 -1.3678929462912492e-05</internalNodes>
          <leafValues>
            1.1537484079599380e-01 -6.2936544418334961e-01</leafValues></_>
        <_>
          <internalNodes>
            0 -1 26 3.3022444695234299e-03</internalNodes>
          <leafValues>
            1.1235406249761581e-01 -9.5547169446945190e-01</leafValues></_>
        <_>
          <internalNodes>
            0 -1 17 1.6874675638973713e-03</internalNodes>
          <leafValues>
            1.4766538143157959e-01 -7.7929097414016724e-01</leafValues></_>
        <_>
          <internalNodes>
            0 -1 35 -1.4985790767241269e-04</internalNodes>
          <leafValues>
            3.4124091267585754e-01 -4.4209212064743042e-01</leafValues></_>
        <_>
          <internalNodes>
            0 -1 22 2.9078133593429811e-05</internalNodes>
          <leafValues>
            -3.8720083236694336e-01 3.3181014657020569e-01</leafValues></_></weakClassifiers></_>
    <!-- stage 14 -->
    <_>
      <maxWeakCount>7</maxWeakCount>
      <stageThreshold>-1.4991269111633301e+00</stageThreshold>
      <weakClassifiers>
        <_>
          <internalNodes>
            0 -1 63 -1.2645724415779114e-01</internalNodes>
          <leafValues>
            8.9473682641983032e-01 -7.9353678226470947e-01</leafValues></_>
        <_>
          <internalNodes>
            0 -1 19 -1.7698477313388139e-04</internalNodes>
          <leafValues>
            1.0005373507738113e-01 -5.8569872379302979e-01</leafValues></_>
        <_>
          <internalNodes>
            0 -1 67 -2.8766240575350821e-05</internalNodes>
          <leafValues>
            -7.0258361101150513e-01 1.8010246753692627e-01</leafValues></_>
        <_>
          <internalNodes>
            0 -1 44 -1.2488057836890221e-04</internalNodes>
          <leafValues>
            -1. 1.4912188053131104e-01</leafValues></_>
        <_>
          <internalNodes>
            0 -1 52 3.9098238630685955e-05</internalNodes>
          <leafValues>
            -3.8857936859130859e-01 2.9175633192062378e-01</leafValues></_>
        <_>
          <internalNodes>
            0 -1 18 1.1470750905573368e-05</internalNodes>
          <leafValues>
            1.7838056385517120e-01 -8.1101357936859131e-01</leafValues></_>
        <_>
          <internalNodes>
            0 -1 15 1.7145549645647407e-03</internalNodes>
          <leafValues>
            7.0141546428203583e-02 -1.</leafValues></_></weakClassifiers></_></stages>
  <features>
    <_>
      <rects>
        <_>
          0 0 1 24 -1.</_>
        <_>
          0 12 1 12 2.</_></rects>
      <tilted>0</tilted></_>
    <_>
      <rects>
        <_>
          0 0 1 28 -1.</_>
        <_>
          0 14 1 14 2.</_></rects>
      <tilted>0</tilted></_>
    <_>
      <rects>
        <_>
          0 0 12 10 -1.</_>
        <_>
          0 5 12 5 2.</_></rects>
      <tilted>0</tilted></_>
    <_>
      <rects>
        <_>
          0 0 26 1 -1.</_>
        <_>
          13 0 13 1 2.</_></rects>
      <tilted>0</tilted></_>
    <_>
      <rects>
        <_>
          0 0 22 14 -1.</_>
        <_>
          0 7 22 7 2.</_></rects>
      <tilted>0</tilted></_>
    <_>
      <rects>
        <_>
          0 0 30 28 -1.</_>
        <_>
          0 14 30 14 2.</_></rects>
      <tilted>0</tilted></_>
    <_>
      <rects>
        <_>
          0 1 4 8 -1.</_>
        <_>
          2 1 2 8 2.</_></rects>
      <tilted>0</tilted></_>
    <_>
      <rects>
        <_>
          0 2 12 1 -1.</_>
        <_>
          6 2 6 1 2.</_></rects>
      <tilted>0</tilted></_>
    <_>
      <rects>
        <_>
          0 3 8 25 -1.</_>
        <_>
          4 3 4 25 2.</_></rects>
      <tilted>0</tilted></_>
    <_>
      <rects>
        <_>
          0 7 14 17 -1.</_>
        <_>
          7 7 7 17 2.</_></rects>
      <tilted>0</tilted></_>
    <_>
      <rects>
        <_>
          0 8 20 11 -1.</_>
        <_>
          10 8 10 11 2.</_></rects>
      <tilted>0</tilted></_>
    <_>
      <rects>
        <_>
          0 8 20 12 -1.</_>
        <_>
          10 8 10 12 2.</_></rects>
      <tilted>0</tilted></_>
    <_>
      <rects>
        <_>
          0 11 30 6 -1.</_>
        <_>
          10 11 10 6 3.</_></rects>
      <tilted>0</tilted></_>
    <_>
      <rects>
        <_>
          0 13 1 16 -1.</_>
        <_>
          0 21 1 8 2.</_></rects>
      <tilted>0</tilted></_>
    <_>
      <rects>
        <_>
          0 15 1 12 -1.</_>
        <_>
          0 21 1 6 2.</_></rects>
      <tilted>0</tilted></_>
    <_>
      <rects>
        <_>
          0 16 1 14 -1.</_>
        <_>
          0 23 1 7 2.</_></rects>
      <tilted>0</tilted></_>
    <_>
      <rects>
        <_>
          0 29 21 1 -1.</_>
        <_>
          7 29 7 1 3.</_></rects>
      <tilted>0</tilted></_>
    <_>
      <rects>
        <_>
          0 29 28 1 -1.</_>
        <_>
          14 29 14 1 2.</_></rects>
      <tilted>0</tilted></_>
    <_>
      <rects>
        <_>
          1 1 29 8 -1.</_>
        <_>
          1 5 29 4 2.</_></rects>
      <tilted>0</tilted></_>
    <_>
      <rects>
        <_>
          3 4 2 21 -1.</_>
        <_>
          4 4 1 21 2.</_></rects>
      <tilted>0</tilted></_>
    <_>
      <rects>
        <_>
          3 6 26 18 -1.</_>
        <_>
          3 12 26 6 3.</_></rects>
      <tilted>0</tilted></_>
    <_>
      <rects>
        <_>
          3 12 24 5 -1.</_>
        <_>
          11 12 8 5 3.</_></rects>
      <tilted>0</tilted></_>
    <_>
      <rects>
        <_>
          3 17 15 1 -1.</_>
        <_>
          8 17 5 1 3.</_></rects>
      <tilted>0</tilted></_>
    <_>
      <rects>
        <_>
          4 21 8 6 -1.</_>
        <_>
          4 24 8 3 2.</_></rects>
      <tilted>0</tilted></_>
    <_>
      <rects>
        <_>
          5 6 2 19 -1.</_>
        <_>
          6 6 1 19 2.</_></rects>
      <tilted>0</tilted></_>
    <_>
      <rects>
        <_>
          6 0 14 2 -1.</_>
        <_>
          13 0 7 2 2.</_></rects>
      <tilted>0</tilted></_>
    <_>
      <rects>
        <_>
          6 1 3 29 -1.</_>
        <_>
          7 1 1 29 3.</_></rects>
      <tilted>0</tilted></_>
    <_>
      <rects>
        <_>
          6 2 3 28 -1.</_>
        <_>
          7 2 1 28 3.</_></rects>
      <tilted>0</tilted></_>
    <_>
      <rects>
        <_>
          7 0 21 2 -1.</_>
        <_>
          7 1 21 1 2.</_></rects>
      <tilted>0</tilted></_>
    <_>
      <rects>
        <_>
          7 4 18 20 -1.</_>
        <_>
          7 4 9 10 2.</_>
        <_>
          16 14 9 10 2.</_></rects>
      <tilted>0</tilted></_>
    <_>
      <rects>
        <_>
          7 17 8 2 -1.</_>
        <_>
          7 17 4 1 2.</_>
        <_>
          11 18 4 1 2.</_></rects>
      <tilted>0</tilted></_>
    <_>
      <rects>
        <_>
          8 0 19 14 -1.</_>
        <_>
          8 7 19 7 2.</_></rects>
      <tilted>0</tilted></_>
    <_>
      <rects>
        <_>
          8 11 6 18 -1.</_>
        <_>
          8 17 6 6 3.</_></rects>
      <tilted>0</tilted></_>
    <_>
      <rects>
        <_>
          8 29 16 1 -1.</_>
        <_>
          16 29 8 1 2.</_></rects>
      <tilted>0</tilted></_>
    <_>
      <rects>
        <_>
          10 0 7 6 -1.</_>
        <_>
          10 2 7 2 3.</_></rects>
      <tilted>0</tilted></_>
    <_>
      <rects>
        <_>
          10 12 6 2 -1.</_>
        <_>
          10 13 6 1 2.</_></rects>
      <tilted>0</tilted></_>
    <_>
      <rects>
        <_>
          10 13 4 5 -1.</_>
        <_>
          12 13 2 5 2.</_></rects>
      <tilted>0</tilted></_>
    <_>
      <rects>
        <_>
          11 0 9 30 -1.</_>
        <_>
          11 10 9 10 3.</_></rects>
      <tilted>0</tilted></_>
    <_>
      <rects>
        <_>
          11 8 10 12 -1.</_>
        <_>
          11 8 5 6 2.</_>
        <_>
          16 14 5 6 2.</_></rects>
      <tilted>0</tilted></_>
    <_>
      <rects>
        <_>
          12 3 6 24 -1.</_>
        <_>
          12 11 6 8 3.</_></rects>
      <tilted>0</tilted></_>
    <_>
      <rects>
        <_>
          12 6 3 12 -1.</_>
        <_>
          12 10 3 4 3.</_></rects>
      <tilted>0</tilted></_>
    <_>
      <rects>
        <_>
          12 6 5 18 -1.</_>
        <_>
          12 12 5 6 3.</_></rects>
      <tilted>0</tilted></_>
    <_>
      <rects>
        <_>
          12 7 6 10 -1.</_>
        <_>
          12 12 6 5 2.</_></rects>
      <tilted>0</tilted></_>
    <_>
      <rects>
        <_>
          12 11 18 4 -1.</_>
        <_>
          21 11 9 4 2.</_></rects>
      <tilted>0</tilted></_>
    <_>
      <rects>
        <_>
          12 25 8 2 -1.</_>
        <_>
          16 25 4 2 2.</_></rects>
      <tilted>0</tilted></_>
    <_>
      <rects>
        <_>
          12 26 18 2 -1.</_>
        <_>
          18 26 6 2 3.</_></rects>
      <tilted>0</tilted></_>
    <_>
      <rects>
        <_>
          13 1 6 4 -1.</_>
        <_>
          13 3 6 2 2.</_></rects>
      <tilted>0</tilted></_>
    <_>
      <rects>
        <_>
          13 6 3 18 -1.</_>
        <_>
          13 12 3 6 3.</_></rects>
      <tilted>0</tilted></_>
    <_>
      <rects>
        <_>
          13 9 4 12 -1.</_>
        <_>
          13 13 4 4 3.</_></rects>
      <tilted>0</tilted></_>
    <_>
      <rects>
        <_>
          13 13 2 2 -1.</_>
        <_>
          13 14 2 1 2.</_></rects>
      <tilted>0</tilted></_>
    <_>
      <rects>
        <_>
          14 0 6 1 -1.</_>
        <_>
          17 0 3 1 2.</_></rects>
      <tilted>0</tilted></_>
    <_>
      <rects>
        <_>
          14 0 16 18 -1.</_>
        <_>
          22 0 8 18 2.</_></rects>
      <tilted>0</tilted></_>
    <_>
      <rects>
        <_>
          15 14 6 2 -1.</_>
        <_>
          15 14 3 1 2.</_>
        <_>
          18 15 3 1 2.</_></rects>
      <tilted>0</tilted></_>
    <_>
      <rects>
        <_>
          16 0 1 18 -1.</_>
        <_>
          16 9 1 9 2.</_></rects>
      <tilted>0</tilted></_>
    <_>
      <rects>
        <_>
          16 2 3 13 -1.</_>
        <_>
          17 2 1 13 3.</_></rects>
      <tilted>0</tilted></_>
    <_>
      <rects>
        <_>
          16 13 14 14 -1.</_>
        <_>
          23 13 7 14 2.</_></rects>
      <tilted>0</tilted></_>
    <_>
      <rects>
        <_>
          16 15 3 3 -1.</_>
        <_>
          17 15 1 3 3.</_></rects>
      <tilted>0</tilted></_>
    <_>
      <rects>
        <_>
          16 17 3 3 -1.</_>
        <_>
          17 17 1 3 3.</_></rects>
      <tilted>0</tilted></_>
    <_>
      <rects>
        <_>
          17 0 6 24 -1.</_>
        <_>
          19 0 2 24 3.</_></rects>
      <tilted>0</tilted></_>
    <_>
      <rects>
        <_>
          17 0 6 2 -1.</_>
        <_>
          17 1 6 1 2.</_></rects>
      <tilted>0</tilted></_>
    <_>
      <rects>
        <_>
          17 4 10 10 -1.</_>
        <_>
          17 4 5 5 2.</_>
        <_>
          22 9 5 5 2.</_></rects>
      <tilted>0</tilted></_>
    <_>
      <rects>
        <_>
          19 0 4 27 -1.</_>
        <_>
          21 0 2 27 2.</_></rects>
      <tilted>0</tilted></_>
    <_>
      <rects>
        <_>
          19 1 4 18 -1.</_>
        <_>
          19 7 4 6 3.</_></rects>
      <tilted>0</tilted></_>
    <_>
      <rects>
        <_>
          20 0 4 18 -1.</_>
        <_>
          20 6 4 6 3.</_></rects>
      <tilted>0</tilted></_>
    <_>
      <rects>
        <_>
          22 0 3 15 -1.</_>
        <_>
          22 5 3 5 3.</_></rects>
      <tilted>0</tilted></_>
    <_>
      <rects>
        <_>
          25 1 5 6 -1.</_>
        <_>
          25 3 5 2 3.</_></rects>
      <tilted>0</tilted></_>
    <_>
      <rects>
        <_>
          26 3 4 27 -1.</_>
        <_>
          28 3 2 27 2.</_></rects>
      <tilted>0</tilted></_>
    <_>
      <rects>
        <_>
          29 1 1 12 -1.</_>
        <_>
          29 7 1 6 2.</_></rects>
      <tilted>0</tilted></_>
    <_>
      <rects>
        <_>
          29 3 1 18 -1.</_>
        <_>
          29 9 1 6 3.</_></rects>
      <tilted>0</tilted></_>
    <_>
      <rects>
        <_>
          29 5 1 22 -1.</_>
        <_>
          29 16 1 11 2.</_></rects>
      <tilted>0</tilted></_></features></cascade>
</opencv_storage>
