<?xml version="1.0"?>
<opencv_storage>
<cascade>
  <stageType>BOOST</stageType>
  <featureType>HAAR</featureType>
  <height>30</height>
  <width>30</width>
  <stageParams>
    <boostType>GAB</boostType>
    <minHitRate>9.9500000476837158e-01</minHitRate>
    <maxFalseAlarm>5.0000000000000000e-01</maxFalseAlarm>
    <weightTrimRate>9.4999998807907104e-01</weightTrimRate>
    <maxDepth>1</maxDepth>
    <maxWeakCount>100</maxWeakCount></stageParams>
  <featureParams>
    <maxCatCount>0</maxCatCount>
    <featSize>1</featSize>
    <mode>BASIC</mode></featureParams>
  <stageNum>18</stageNum>
  <stages>
    <!-- stage 0 -->
    <_>
      <maxWeakCount>5</maxWeakCount>
      <stageThreshold>-1.3804104328155518e+00</stageThreshold>
      <weakClassifiers>
        <_>
          <internalNodes>
            0 -1 62 -1.9618734717369080e-01</internalNodes>
          <leafValues>
            6.6013073921203613e-01 -9.0606653690338135e-01</leafValues></_>
        <_>
          <internalNodes>
            0 -1 82 9.1623893240466714e-05</internalNodes>
          <leafValues>
            1.6909879446029663e-01 -9.7482347488403320e-01</leafValues></_>
        <_>
          <internalNodes>
            0 -1 112 3.8109317421913147e-02</internalNodes>
          <leafValues>
            -5.8494251966476440e-01 6.5743029117584229e-01</leafValues></_>
        <_>
          <internalNodes>
            0 -1 92 1.7019327060552314e-05</internalNodes>
          <leafValues>
            3.4423303604125977e-01 -8.5512197017669678e-01</leafValues></_>
        <_>
          <internalNodes>
            0 -1 107 7.3457788676023483e-03</internalNodes>
          <leafValues>
            -4.0273314714431763e-01 8.3388090133666992e-01</leafValues></_></weakClassifiers></_>
    <!-- stage 1 -->
    <_>
      <maxWeakCount>5</maxWeakCount>
      <stageThreshold>-1.7719184160232544e+00</stageThreshold>
      <weakClassifiers>
        <_>
          <internalNodes>
            0 -1 55 1.4684444665908813e-01</internalNodes>
          <leafValues>
            -9.1038697957992554e-01 3.5751295089721680e-01</leafValues></_>
        <_>
          <internalNodes>
            0 -1 92 -7.9565230407752097e-05</internalNodes>
          <leafValues>
            -8.2888323068618774e-01 1.9128437340259552e-01</leafValues></_>
        <_>
          <internalNodes>
            0 -1 28 -2.7909107506275177e-02</internalNodes>
          <leafValues>
            7.0406436920166016e-01 -5.1614594459533691e-01</leafValues></_>
        <_>
          <internalNodes>
            0 -1 36 4.7323669423349202e-04</internalNodes>
          <leafValues>
            3.4213829040527344e-01 -9.2716407775878906e-01</leafValues></_>
        <_>
          <internalNodes>
            0 -1 38 -2.7323297690600157e-03</internalNodes>
          <leafValues>
            -1. 3.9049419760704041e-01</leafValues></_></weakClassifiers></_>
    <!-- stage 2 -->
    <_>
      <maxWeakCount>3</maxWeakCount>
      <stageThreshold>-1.5286262035369873e+00</stageThreshold>
      <weakClassifiers>
        <_>
          <internalNodes>
            0 -1 54 -3.1668832898139954e-01</internalNodes>
          <leafValues>
            5.1079136133193970e-01 -8.6486488580703735e-01</leafValues></_>
        <_>
          <internalNodes>
            0 -1 18 -1.9816629588603973e-02</internalNodes>
          <leafValues>
            3.1891369819641113e-01 -8.5574257373809814e-01</leafValues></_>
        <_>
          <internalNodes>
            0 -1 41 6.5719960257411003e-03</internalNodes>
          <leafValues>
            1.9198125600814819e-01 -9.3411117792129517e-01</leafValues></_></weakClassifiers></_>
    <!-- stage 3 -->
    <_>
      <maxWeakCount>4</maxWeakCount>
      <stageThreshold>-1.2710773944854736e+00</stageThreshold>
      <weakClassifiers>
        <_>
          <internalNodes>
            0 -1 51 -4.3778365850448608e-01</internalNodes>
          <leafValues>
            4.8148149251937866e-01 -8.5576921701431274e-01</leafValues></_>
        <_>
          <internalNodes>
            0 -1 109 3.8580670952796936e-02</internalNodes>
          <leafValues>
            -8.5793304443359375e-01 2.8183960914611816e-01</leafValues></_>
        <_>
          <internalNodes>
            0 -1 5 2.2302065044641495e-03</internalNodes>
          <leafValues>
            2.3328973352909088e-01 -8.9625257253646851e-01</leafValues></_>
        <_>
          <internalNodes>
            0 -1 33 -8.1693971878848970e-05</internalNodes>
          <leafValues>
            -9.3043750524520874e-01 2.1762530505657196e-01</leafValues></_></weakClassifiers></_>
    <!-- stage 4 -->
    <_>
      <maxWeakCount>6</maxWeakCount>
      <stageThreshold>-1.6263960599899292e+00</stageThreshold>
      <weakClassifiers>
        <_>
          <internalNodes>
            0 -1 47 6.7921467125415802e-02</internalNodes>
          <leafValues>
            -9.1676300764083862e-01 -1.0322580486536026e-01</leafValues></_>
        <_>
          <internalNodes>
            0 -1 111 2.2688064724206924e-02</internalNodes>
          <leafValues>
            -8.9479315280914307e-01 1.6941232979297638e-01</leafValues></_>
        <_>
          <internalNodes>
            0 -1 30 -1.3563212938606739e-02</internalNodes>
          <leafValues>
            1.9599625468254089e-01 -7.7466356754302979e-01</leafValues></_>
        <_>
          <internalNodes>
            0 -1 39 -4.9642135854810476e-04</internalNodes>
          <leafValues>
            -9.1537308692932129e-01 2.6865726709365845e-01</leafValues></_>
        <_>
          <internalNodes>
            0 -1 128 8.0492456618230790e-05</internalNodes>
          <leafValues>
            1.9975635409355164e-01 -9.2637300491333008e-01</leafValues></_>
        <_>
          <internalNodes>
            0 -1 78 1.7130882479250431e-03</internalNodes>
          <leafValues>
            -4.7337967157363892e-01 4.9141004681587219e-01</leafValues></_></weakClassifiers></_>
    <!-- stage 5 -->
    <_>
      <maxWeakCount>4</maxWeakCount>
      <stageThreshold>-1.3296461105346680e+00</stageThreshold>
      <weakClassifiers>
        <_>
          <internalNodes>
            0 -1 26 -6.5787956118583679e-02</internalNodes>
          <leafValues>
            3.1674209982156754e-02 -8.7211740016937256e-01</leafValues></_>
        <_>
          <internalNodes>
            0 -1 7 9.3131477478891611e-04</internalNodes>
          <leafValues>
            1.2868639826774597e-01 -9.1590046882629395e-01</leafValues></_>
        <_>
          <internalNodes>
            0 -1 128 -3.7057613371871412e-04</internalNodes>
          <leafValues>
            -9.7271245718002319e-01 1.5151421725749969e-01</leafValues></_>
        <_>
          <internalNodes>
            0 -1 75 -5.2219629287719727e-02</internalNodes>
          <leafValues>
            3.8649734854698181e-01 -6.5581923723220825e-01</leafValues></_></weakClassifiers></_>
    <!-- stage 6 -->
    <_>
      <maxWeakCount>8</maxWeakCount>
      <stageThreshold>-1.9794673919677734e+00</stageThreshold>
      <weakClassifiers>
        <_>
          <internalNodes>
            0 -1 61 -6.2331366539001465e-01</internalNodes>
          <leafValues>
            6.5384614467620850e-01 -7.6491540670394897e-01</leafValues></_>
        <_>
          <internalNodes>
            0 -1 16 -3.7917099893093109e-02</internalNodes>
          <leafValues>
            2.2723677754402161e-01 -6.4187610149383545e-01</leafValues></_>
        <_>
          <internalNodes>
            0 -1 50 -2.3287863587029278e-04</internalNodes>
          <leafValues>
            -8.6553728580474854e-01 2.1501545608043671e-01</leafValues></_>
        <_>
          <internalNodes>
            0 -1 116 -2.7315756306052208e-03</internalNodes>
          <leafValues>
            2.8880017995834351e-01 -6.0430502891540527e-01</leafValues></_>
        <_>
          <internalNodes>
            0 -1 132 -4.2695910669863224e-03</internalNodes>
          <leafValues>
            -8.5639107227325439e-01 2.9449033737182617e-01</leafValues></_>
        <_>
          <internalNodes>
            0 -1 136 5.0086737610399723e-04</internalNodes>
          <leafValues>
            2.3055063188076019e-01 -7.0885306596755981e-01</leafValues></_>
        <_>
          <internalNodes>
            0 -1 49 -3.0288021080195904e-03</internalNodes>
          <leafValues>
            -9.8235851526260376e-01 1.7068807780742645e-01</leafValues></_>
        <_>
          <internalNodes>
            0 -1 32 3.7294845096766949e-03</internalNodes>
          <leafValues>
            -6.2133914232254028e-01 2.1193216741085052e-01</leafValues></_></weakClassifiers></_>
    <!-- stage 7 -->
    <_>
      <maxWeakCount>7</maxWeakCount>
      <stageThreshold>-1.7674226760864258e+00</stageThreshold>
      <weakClassifiers>
        <_>
          <internalNodes>
            0 -1 52 -4.8332929611206055e-01</internalNodes>
          <leafValues>
            2.8662419319152832e-01 -8.5461688041687012e-01</leafValues></_>
        <_>
          <internalNodes>
            0 -1 48 4.3298125267028809e-02</internalNodes>
          <leafValues>
            -6.3884413242340088e-01 3.7351503968238831e-01</leafValues></_>
        <_>
          <internalNodes>
            0 -1 25 -2.6143334805965424e-02</internalNodes>
          <leafValues>
            4.5450323820114136e-01 -4.7568720579147339e-01</leafValues></_>
        <_>
          <internalNodes>
            0 -1 35 3.1194435432553291e-03</internalNodes>
          <leafValues>
            2.8636479377746582e-01 -7.2477966547012329e-01</leafValues></_>
        <_>
          <internalNodes>
            0 -1 117 2.5804960387176834e-05</internalNodes>
          <leafValues>
            -6.2315124273300171e-01 3.4155046939849854e-01</leafValues></_>
        <_>
          <internalNodes>
            0 -1 4 -1.3958067575003952e-04</internalNodes>
          <leafValues>
            -8.1964951753616333e-01 2.1290595829486847e-01</leafValues></_>
        <_>
          <internalNodes>
            0 -1 79 2.6743158741737716e-05</internalNodes>
          <leafValues>
            -5.3673064708709717e-01 4.3775200843811035e-01</leafValues></_></weakClassifiers></_>
    <!-- stage 8 -->
    <_>
      <maxWeakCount>9</maxWeakCount>
      <stageThreshold>-1.3583005666732788e+00</stageThreshold>
      <weakClassifiers>
        <_>
          <internalNodes>
            0 -1 60 -5.9835422039031982e-01</internalNodes>
          <leafValues>
            4.6428570151329041e-01 -7.6050043106079102e-01</leafValues></_>
        <_>
          <internalNodes>
            0 -1 49 1.0425555519759655e-03</internalNodes>
          <leafValues>
            5.8079194277524948e-02 -8.1220531463623047e-01</leafValues></_>
        <_>
          <internalNodes>
            0 -1 103 7.2921581566333771e-02</internalNodes>
          <leafValues>
            -5.8415949344635010e-01 2.9665318131446838e-01</leafValues></_>
        <_>
          <internalNodes>
            0 -1 131 3.3198487944900990e-03</internalNodes>
          <leafValues>
            2.2434695065021515e-01 -8.2296484708786011e-01</leafValues></_>
        <_>
          <internalNodes>
            0 -1 27 1.9013809505850077e-03</internalNodes>
          <leafValues>
            2.4593390524387360e-01 -6.9477450847625732e-01</leafValues></_>
        <_>
          <internalNodes>
            0 -1 21 -4.7066477127373219e-03</internalNodes>
          <leafValues>
            -8.8559854030609131e-01 1.3444089889526367e-01</leafValues></_>
        <_>
          <internalNodes>
            0 -1 104 8.5201645561028272e-06</internalNodes>
          <leafValues>
            -3.8596343994140625e-01 3.9854612946510315e-01</leafValues></_>
        <_>
          <internalNodes>
            0 -1 121 5.7070370530709624e-05</internalNodes>
          <leafValues>
            1.6271261870861053e-01 -9.6337449550628662e-01</leafValues></_>
        <_>
          <internalNodes>
            0 -1 87 2.8113971929997206e-03</internalNodes>
          <leafValues>
            -2.8352242708206177e-01 6.5262365341186523e-01</leafValues></_></weakClassifiers></_>
    <!-- stage 9 -->
    <_>
      <maxWeakCount>8</maxWeakCount>
      <stageThreshold>-1.7957938909530640e+00</stageThreshold>
      <weakClassifiers>
        <_>
          <internalNodes>
            0 -1 127 1.6037463865359314e-05</internalNodes>
          <leafValues>
            -9.2452830076217651e-01 -2.3684211075305939e-01</leafValues></_>
        <_>
          <internalNodes>
            0 -1 53 -3.3776614145608619e-05</internalNodes>
          <leafValues>
            1.7104992270469666e-01 -8.0657273530960083e-01</leafValues></_>
        <_>
          <internalNodes>
            0 -1 99 4.0546674426877871e-05</internalNodes>
          <leafValues>
            -7.1102935075759888e-01 2.1560634672641754e-01</leafValues></_>
        <_>
          <internalNodes>
            0 -1 135 -1.3474505394697189e-03</internalNodes>
          <leafValues>
            -8.0766779184341431e-01 1.6764104366302490e-01</leafValues></_>
        <_>
          <internalNodes>
            0 -1 64 -7.6131291280034930e-06</internalNodes>
          <leafValues>
            4.0784382820129395e-01 -4.0192160010337830e-01</leafValues></_>
        <_>
          <internalNodes>
            0 -1 88 -3.0280116334324703e-05</internalNodes>
          <leafValues>
            4.1149753332138062e-01 -4.1680267453193665e-01</leafValues></_>
        <_>
          <internalNodes>
            0 -1 43 -2.5480953045189381e-03</internalNodes>
          <leafValues>
            -1. 2.3027965426445007e-01</leafValues></_>
        <_>
          <internalNodes>
            0 -1 69 -4.1610331390984356e-04</internalNodes>
          <leafValues>
            4.2812702059745789e-01 -3.8653704524040222e-01</leafValues></_></weakClassifiers></_>
    <!-- stage 10 -->
    <_>
      <maxWeakCount>7</maxWeakCount>
      <stageThreshold>-1.7067768573760986e+00</stageThreshold>
      <weakClassifiers>
        <_>
          <internalNodes>
            0 -1 24 -1.3510020449757576e-02</internalNodes>
          <leafValues>
            -4.7619048506021500e-02 -7.9571986198425293e-01</leafValues></_>
        <_>
          <internalNodes>
            0 -1 137 -1.2775012291967869e-03</internalNodes>
          <leafValues>
            -8.2619625329971313e-01 4.0891744196414948e-02</leafValues></_>
        <_>
          <internalNodes>
            0 -1 50 8.5084594320505857e-04</internalNodes>
          <leafValues>
            1.7447355389595032e-01 -6.6331279277801514e-01</leafValues></_>
        <_>
          <internalNodes>
            0 -1 19 1.1670593172311783e-01</internalNodes>
          <leafValues>
            2.3065793514251709e-01 -8.3778011798858643e-01</leafValues></_>
        <_>
          <internalNodes>
            0 -1 12 -7.3922998271882534e-03</internalNodes>
          <leafValues>
            1.6509015858173370e-01 -6.5730661153793335e-01</leafValues></_>
        <_>
          <internalNodes>
            0 -1 138 4.0245946729555726e-04</internalNodes>
          <leafValues>
            1.9226360321044922e-01 -7.8692418336868286e-01</leafValues></_>
        <_>
          <internalNodes>
            0 -1 118 -2.5804960387176834e-05</internalNodes>
          <leafValues>
            1.7640082538127899e-01 -6.5427839756011963e-01</leafValues></_></weakClassifiers></_>
    <!-- stage 11 -->
    <_>
      <maxWeakCount>11</maxWeakCount>
      <stageThreshold>-1.7924414873123169e+00</stageThreshold>
      <weakClassifiers>
        <_>
          <internalNodes>
            0 -1 58 -2.5797265768051147e-01</internalNodes>
          <leafValues>
            -2.1100917458534241e-01 -8.1400209665298462e-01</leafValues></_>
        <_>
          <internalNodes>
            0 -1 122 1.5915888070594519e-05</internalNodes>
          <leafValues>
            -7.6373887062072754e-01 -9.1981310397386551e-03</leafValues></_>
        <_>
          <internalNodes>
            0 -1 134 -1.3908967957831919e-04</internalNodes>
          <leafValues>
            -6.5311491489410400e-01 1.9312044978141785e-01</leafValues></_>
        <_>
          <internalNodes>
            0 -1 42 -1.1518542305566370e-04</internalNodes>
          <leafValues>
            -9.7228759527206421e-01 1.2063650041818619e-01</leafValues></_>
        <_>
          <internalNodes>
            0 -1 31 1.0805038362741470e-01</internalNodes>
          <leafValues>
            -4.7129842638969421e-01 2.5306382775306702e-01</leafValues></_>
        <_>
          <internalNodes>
            0 -1 44 -3.8156863301992416e-03</internalNodes>
          <leafValues>
            -7.1753686666488647e-01 1.5403158962726593e-01</leafValues></_>
        <_>
          <internalNodes>
            0 -1 72 -1.3711792416870594e-04</internalNodes>
          <leafValues>
            4.5175248384475708e-01 -2.6396629214286804e-01</leafValues></_>
        <_>
          <internalNodes>
            0 -1 119 -3.6321401130408049e-03</internalNodes>
          <leafValues>
            5.6132894754409790e-01 -2.2382865846157074e-01</leafValues></_>
        <_>
          <internalNodes>
            0 -1 2 -3.5914103500545025e-03</internalNodes>
          <leafValues>
            -6.8029528856277466e-01 1.7796503007411957e-01</leafValues></_>
        <_>
          <internalNodes>
            0 -1 115 2.0825397223234177e-04</internalNodes>
          <leafValues>
            -5.3225642442703247e-01 2.2246412932872772e-01</leafValues></_>
        <_>
          <internalNodes>
            0 -1 14 -7.1252525231102481e-06</internalNodes>
          <leafValues>
            -8.3917456865310669e-01 1.4076958596706390e-01</leafValues></_></weakClassifiers></_>
    <!-- stage 12 -->
    <_>
      <maxWeakCount>11</maxWeakCount>
      <stageThreshold>-1.7448402643203735e+00</stageThreshold>
      <weakClassifiers>
        <_>
          <internalNodes>
            0 -1 81 1.4300188422203064e-01</internalNodes>
          <leafValues>
            -7.3844814300537109e-01 7.8571426868438721e-01</leafValues></_>
        <_>
          <internalNodes>
            0 -1 59 -2.5910824537277222e-01</internalNodes>
          <leafValues>
            3.7560480833053589e-01 -4.8009291291236877e-01</leafValues></_>
        <_>
          <internalNodes>
            0 -1 3 5.8457668637856841e-04</internalNodes>
          <leafValues>
            2.0495474338531494e-01 -5.9703058004379272e-01</leafValues></_>
        <_>
          <internalNodes>
            0 -1 8 -7.3817269876599312e-03</internalNodes>
          <leafValues>
            1.7616070806980133e-01 -6.5512168407440186e-01</leafValues></_>
        <_>
          <internalNodes>
            0 -1 80 1.1143267899751663e-01</internalNodes>
          <leafValues>
            -2.2447724640369415e-01 4.9968084692955017e-01</leafValues></_>
        <_>
          <internalNodes>
            0 -1 10 -7.4031338095664978e-02</internalNodes>
          <leafValues>
            -6.8070310354232788e-01 1.7247313261032104e-01</leafValues></_>
        <_>
          <internalNodes>
            0 -1 57 -4.8869073390960693e-02</internalNodes>
          <leafValues>
            4.3197363615036011e-01 -3.0459436774253845e-01</leafValues></_>
        <_>
          <internalNodes>
            0 -1 105 1.3240745829534717e-05</internalNodes>
          <leafValues>
            -3.2228311896324158e-01 3.3253189921379089e-01</leafValues></_>
        <_>
          <internalNodes>
            0 -1 34 8.8895205408334732e-05</internalNodes>
          <leafValues>
            1.3790275156497955e-01 -7.9916667938232422e-01</leafValues></_>
        <_>
          <internalNodes>
            0 -1 106 -3.5040160582866520e-05</internalNodes>
          <leafValues>
            4.3904629349708557e-01 -2.6528602838516235e-01</leafValues></_>
        <_>
          <internalNodes>
            0 -1 124 1.7879258666653186e-04</internalNodes>
          <leafValues>
            1.4073492586612701e-01 -7.5036895275115967e-01</leafValues></_></weakClassifiers></_>
    <!-- stage 13 -->
    <_>
      <maxWeakCount>9</maxWeakCount>
      <stageThreshold>-1.3723803758621216e+00</stageThreshold>
      <weakClassifiers>
        <_>
          <internalNodes>
            0 -1 83 1.5178763866424561e-01</internalNodes>
          <leafValues>
            -7.3542213439941406e-01 7.6923078298568726e-01</leafValues></_>
        <_>
          <internalNodes>
            0 -1 23 -7.0264711976051331e-02</internalNodes>
          <leafValues>
            1.0978819429874420e-01 -6.1879336833953857e-01</leafValues></_>
        <_>
          <internalNodes>
            0 -1 22 -3.2605091109871864e-03</internalNodes>
          <leafValues>
            4.8634418845176697e-01 -2.9739549756050110e-01</leafValues></_>
        <_>
          <internalNodes>
            0 -1 117 3.8739759474992752e-05</internalNodes>
          <leafValues>
            -6.6177791357040405e-01 1.7584517598152161e-01</leafValues></_>
        <_>
          <internalNodes>
            0 -1 110 -8.3472972619347274e-05</internalNodes>
          <leafValues>
            -8.1780940294265747e-01 1.4677456021308899e-01</leafValues></_>
        <_>
          <internalNodes>
            0 -1 133 2.5826913770288229e-03</internalNodes>
          <leafValues>
            1.1689398437738419e-01 -8.4758126735687256e-01</leafValues></_>
        <_>
          <internalNodes>
            0 -1 56 -9.1028578026453033e-06</internalNodes>
          <leafValues>
            2.1721728146076202e-01 -4.8551765084266663e-01</leafValues></_>
        <_>
          <internalNodes>
            0 -1 6 -1.5462737064808607e-03</internalNodes>
          <leafValues>
            -9.0890765190124512e-01 1.1395718157291412e-01</leafValues></_>
        <_>
          <internalNodes>
            0 -1 84 1.2519728392362595e-02</internalNodes>
          <leafValues>
            -1.9717428088188171e-01 5.2730453014373779e-01</leafValues></_></weakClassifiers></_>
    <!-- stage 14 -->
    <_>
      <maxWeakCount>11</maxWeakCount>
      <stageThreshold>-1.4228683710098267e+00</stageThreshold>
      <weakClassifiers>
        <_>
          <internalNodes>
            0 -1 46 2.8434690833091736e-01</internalNodes>
          <leafValues>
            -7.3090279102325439e-01 7.3913043737411499e-01</leafValues></_>
        <_>
          <internalNodes>
            0 -1 114 -1.7743906937539577e-03</internalNodes>
          <leafValues>
            2.2137577831745148e-01 -4.5316585898399353e-01</leafValues></_>
        <_>
          <internalNodes>
            0 -1 37 -1.7549513140693307e-03</internalNodes>
          <leafValues>
            -8.8995283842086792e-01 1.1369720846414566e-01</leafValues></_>
        <_>
          <internalNodes>
            0 -1 108 -1.4738381651113741e-05</internalNodes>
          <leafValues>
            4.2933908104896545e-01 -2.6505669951438904e-01</leafValues></_>
        <_>
          <internalNodes>
            0 -1 17 -3.5927630960941315e-02</internalNodes>
          <leafValues>
            4.1994723677635193e-01 -2.7962216734886169e-01</leafValues></_>
        <_>
          <internalNodes>
            0 -1 132 5.7214903790736571e-05</internalNodes>
          <leafValues>
            1.6039134562015533e-01 -5.3998672962188721e-01</leafValues></_>
        <_>
          <internalNodes>
            0 -1 100 4.6920916065573692e-04</internalNodes>
          <leafValues>
            -3.1076171994209290e-01 3.0959847569465637e-01</leafValues></_>
        <_>
          <internalNodes>
            0 -1 102 -4.9276317440671846e-05</internalNodes>
          <leafValues>
            3.8125467300415039e-01 -2.8494933247566223e-01</leafValues></_>
        <_>
          <internalNodes>
            0 -1 93 1.0298708366462961e-04</internalNodes>
          <leafValues>
            1.0558999329805374e-01 -8.6670756340026855e-01</leafValues></_>
        <_>
          <internalNodes>
            0 -1 91 3.7663473631255329e-04</internalNodes>
          <leafValues>
            -1.9875957071781158e-01 5.2481275796890259e-01</leafValues></_>
        <_>
          <internalNodes>
            0 -1 29 -1.6670156037434936e-04</internalNodes>
          <leafValues>
            -7.2095364332199097e-01 1.3448505103588104e-01</leafValues></_></weakClassifiers></_>
    <!-- stage 15 -->
    <_>
      <maxWeakCount>11</maxWeakCount>
      <stageThreshold>-1.5035786628723145e+00</stageThreshold>
      <weakClassifiers>
        <_>
          <internalNodes>
            0 -1 65 2.9276597499847412e-01</internalNodes>
          <leafValues>
            -7.3449784517288208e-01 5.3333336114883423e-01</leafValues></_>
        <_>
          <internalNodes>
            0 -1 126 6.1243353411555290e-04</internalNodes>
          <leafValues>
            -6.0244089365005493e-01 6.0396160930395126e-02</leafValues></_>
        <_>
          <internalNodes>
            0 -1 20 -2.8207767754793167e-02</internalNodes>
          <leafValues>
            1.9057226181030273e-01 -4.6904787421226501e-01</leafValues></_>
        <_>
          <internalNodes>
            0 -1 70 4.4636018574237823e-03</internalNodes>
          <leafValues>
            1.3639320433139801e-01 -8.9800721406936646e-01</leafValues></_>
        <_>
          <internalNodes>
            0 -1 123 -3.9221617043949664e-05</internalNodes>
          <leafValues>
            -7.8008919954299927e-01 5.8090593665838242e-02</leafValues></_>
        <_>
          <internalNodes>
            0 -1 95 1.1867588182212785e-04</internalNodes>
          <leafValues>
            -2.2203929722309113e-01 3.7677809596061707e-01</leafValues></_>
        <_>
          <internalNodes>
            0 -1 96 -3.0187959782779217e-04</internalNodes>
          <leafValues>
            3.2977107167243958e-01 -2.5943291187286377e-01</leafValues></_>
        <_>
          <internalNodes>
            0 -1 94 -7.0408088504336774e-05</internalNodes>
          <leafValues>
            -7.9961955547332764e-01 1.2856090068817139e-01</leafValues></_>
        <_>
          <internalNodes>
            0 -1 63 -4.0757411625236273e-05</internalNodes>
          <leafValues>
            3.5983827710151672e-01 -2.6657897233963013e-01</leafValues></_>
        <_>
          <internalNodes>
            0 -1 97 2.7740930818254128e-05</internalNodes>
          <leafValues>
            -2.7187591791152954e-01 3.6674833297729492e-01</leafValues></_>
        <_>
          <internalNodes>
            0 -1 89 -1.6532436013221741e-01</internalNodes>
          <leafValues>
            6.8594050407409668e-01 -1.2361130118370056e-01</leafValues></_></weakClassifiers></_>
    <!-- stage 16 -->
    <_>
      <maxWeakCount>12</maxWeakCount>
      <stageThreshold>-1.5253052711486816e+00</stageThreshold>
      <weakClassifiers>
        <_>
          <internalNodes>
            0 -1 85 2.2186949849128723e-01</internalNodes>
          <leafValues>
            -7.2217428684234619e-01 7.5000000000000000e-01</leafValues></_>
        <_>
          <internalNodes>
            0 -1 9 -7.2797954082489014e-02</internalNodes>
          <leafValues>
            4.5878309756517410e-02 -5.7063114643096924e-01</leafValues></_>
        <_>
          <internalNodes>
            0 -1 15 -1.4234630391001701e-02</internalNodes>
          <leafValues>
            3.6865514516830444e-01 -2.7167162299156189e-01</leafValues></_>
        <_>
          <internalNodes>
            0 -1 130 -2.8439302695915103e-04</internalNodes>
          <leafValues>
            -6.1105477809906006e-01 1.3729383051395416e-01</leafValues></_>
        <_>
          <internalNodes>
            0 -1 68 2.3865637558628805e-05</internalNodes>
          <leafValues>
            -2.7355539798736572e-01 3.3521968126296997e-01</leafValues></_>
        <_>
          <internalNodes>
            0 -1 71 -2.6035429909825325e-03</internalNodes>
          <leafValues>
            -6.1133110523223877e-01 1.1297647655010223e-01</leafValues></_>
        <_>
          <internalNodes>
            0 -1 66 -1.3356951967580244e-05</internalNodes>
          <leafValues>
            3.4465500712394714e-01 -2.6478251814842224e-01</leafValues></_>
        <_>
          <internalNodes>
            0 -1 73 8.4236249676905572e-05</internalNodes>
          <leafValues>
            -3.2376846671104431e-01 2.5785794854164124e-01</leafValues></_>
        <_>
          <internalNodes>
            0 -1 1 3.6134188994765282e-03</internalNodes>
          <leafValues>
            1.0839136689901352e-01 -7.9461961984634399e-01</leafValues></_>
        <_>
          <internalNodes>
            0 -1 74 3.7169577553868294e-03</internalNodes>
          <leafValues>
            9.5890305936336517e-02 -7.6889938116073608e-01</leafValues></_>
        <_>
          <internalNodes>
            0 -1 77 -4.8022288829088211e-03</internalNodes>
          <leafValues>
            6.5118622779846191e-01 -1.5634812414646149e-01</leafValues></_>
        <_>
          <internalNodes>
            0 -1 90 -1.1051681940443814e-04</internalNodes>
          <leafValues>
            2.8787270188331604e-01 -3.2792264223098755e-01</leafValues></_></weakClassifiers></_>
    <!-- stage 17 -->
    <_>
      <maxWeakCount>14</maxWeakCount>
      <stageThreshold>-1.7296487092971802e+00</stageThreshold>
      <weakClassifiers>
        <_>
          <internalNodes>
            0 -1 76 2.1825094521045685e-01</internalNodes>
          <leafValues>
            -7.2265291213989258e-01 1.</leafValues></_>
        <_>
          <internalNodes>
            0 -1 40 4.5724496885668486e-05</internalNodes>
          <leafValues>
            -5.3780823945999146e-02 -7.8166443109512329e-01</leafValues></_>
        <_>
          <internalNodes>
            0 -1 120 8.6517296731472015e-03</internalNodes>
          <leafValues>
            -5.3991329669952393e-01 1.5927852690219879e-01</leafValues></_>
        <_>
          <internalNodes>
            0 -1 45 -7.7731043100357056e-02</internalNodes>
          <leafValues>
            -7.8785890340805054e-01 1.1012545973062515e-01</leafValues></_>
        <_>
          <internalNodes>
            0 -1 0 -1.8746468704193830e-03</internalNodes>
          <leafValues>
            -5.8050894737243652e-01 1.5124450623989105e-01</leafValues></_>
        <_>
          <internalNodes>
            0 -1 86 -1.3451313972473145e-01</internalNodes>
          <leafValues>
            2.7872037887573242e-01 -3.0269601941108704e-01</leafValues></_>
        <_>
          <internalNodes>
            0 -1 125 7.0290734583977610e-06</internalNodes>
          <leafValues>
            2.4030217528343201e-01 -3.2213917374610901e-01</leafValues></_>
        <_>
          <internalNodes>
            0 -1 101 -1.7643021419644356e-04</internalNodes>
          <leafValues>
            5.3626042604446411e-01 -1.3603629171848297e-01</leafValues></_>
        <_>
          <internalNodes>
            0 -1 98 -2.5898386957123876e-04</internalNodes>
          <leafValues>
            3.0157184600830078e-01 -2.5340574979782104e-01</leafValues></_>
        <_>
          <internalNodes>
            0 -1 113 4.3316438677720726e-05</internalNodes>
          <leafValues>
            8.3465076982975006e-02 -8.2019954919815063e-01</leafValues></_>
        <_>
          <internalNodes>
            0 -1 67 2.1487376652657986e-03</internalNodes>
          <leafValues>
            6.5905973315238953e-02 -8.9494925737380981e-01</leafValues></_>
        <_>
          <internalNodes>
            0 -1 129 -6.9740963226649910e-06</internalNodes>
          <leafValues>
            -6.4816975593566895e-01 9.8421163856983185e-02</leafValues></_>
        <_>
          <internalNodes>
            0 -1 11 -9.0586058795452118e-03</internalNodes>
          <leafValues>
            2.5280520319938660e-01 -3.0450960993766785e-01</leafValues></_>
        <_>
          <internalNodes>
            0 -1 13 1.3320915168151259e-03</internalNodes>
          <leafValues>
            8.2614481449127197e-02 -8.3814436197280884e-01</leafValues></_></weakClassifiers></_></stages>
  <features>
    <_>
      <rects>
        <_>
          0 0 1 24 -1.</_>
        <_>
          0 8 1 8 3.</_></rects>
      <tilted>0</tilted></_>
    <_>
      <rects>
        <_>
          0 0 1 30 -1.</_>
        <_>
          0 10 1 10 3.</_></rects>
      <tilted>0</tilted></_>
    <_>
      <rects>
        <_>
          0 0 1 22 -1.</_>
        <_>
          0 11 1 11 2.</_></rects>
      <tilted>0</tilted></_>
    <_>
      <rects>
        <_>
          0 0 1 30 -1.</_>
        <_>
          0 15 1 15 2.</_></rects>
      <tilted>0</tilted></_>
    <_>
      <rects>
        <_>
          0 0 9 2 -1.</_>
        <_>
          3 0 3 2 3.</_></rects>
      <tilted>0</tilted></_>
    <_>
      <rects>
        <_>
          0 0 3 18 -1.</_>
        <_>
          0 9 3 9 2.</_></rects>
      <tilted>0</tilted></_>
    <_>
      <rects>
        <_>
          0 0 27 1 -1.</_>
        <_>
          9 0 9 1 3.</_></rects>
      <tilted>0</tilted></_>
    <_>
      <rects>
        <_>
          0 0 24 1 -1.</_>
        <_>
          12 0 12 1 2.</_></rects>
      <tilted>0</tilted></_>
    <_>
      <rects>
        <_>
          0 1 6 29 -1.</_>
        <_>
          3 1 3 29 2.</_></rects>
      <tilted>0</tilted></_>
    <_>
      <rects>
        <_>
          0 1 14 26 -1.</_>
        <_>
          7 1 7 26 2.</_></rects>
      <tilted>0</tilted></_>
    <_>
      <rects>
        <_>
          0 1 30 21 -1.</_>
        <_>
          15 1 15 21 2.</_></rects>
      <tilted>0</tilted></_>
    <_>
      <rects>
        <_>
          0 2 4 26 -1.</_>
        <_>
          2 2 2 26 2.</_></rects>
      <tilted>0</tilted></_>
    <_>
      <rects>
        <_>
          0 2 6 24 -1.</_>
        <_>
          3 2 3 24 2.</_></rects>
      <tilted>0</tilted></_>
    <_>
      <rects>
        <_>
          0 3 1 12 -1.</_>
        <_>
          0 7 1 4 3.</_></rects>
      <tilted>0</tilted></_>
    <_>
      <rects>
        <_>
          0 4 1 3 -1.</_>
        <_>
          0 5 1 1 3.</_></rects>
      <tilted>0</tilted></_>
    <_>
      <rects>
        <_>
          0 6 4 22 -1.</_>
        <_>
          2 6 2 22 2.</_></rects>
      <tilted>0</tilted></_>
    <_>
      <rects>
        <_>
          0 6 8 18 -1.</_>
        <_>
          4 6 4 18 2.</_></rects>
      <tilted>0</tilted></_>
    <_>
      <rects>
        <_>
          0 8 8 10 -1.</_>
        <_>
          4 8 4 10 2.</_></rects>
      <tilted>0</tilted></_>
    <_>
      <rects>
        <_>
          0 8 8 20 -1.</_>
        <_>
          4 8 4 20 2.</_></rects>
      <tilted>0</tilted></_>
    <_>
      <rects>
        <_>
          0 8 30 15 -1.</_>
        <_>
          15 8 15 15 2.</_></rects>
      <tilted>0</tilted></_>
    <_>
      <rects>
        <_>
          0 9 8 14 -1.</_>
        <_>
          4 9 4 14 2.</_></rects>
      <tilted>0</tilted></_>
    <_>
      <rects>
        <_>
          0 10 1 20 -1.</_>
        <_>
          0 20 1 10 2.</_></rects>
      <tilted>0</tilted></_>
    <_>
      <rects>
        <_>
          0 10 6 18 -1.</_>
        <_>
          2 10 2 18 3.</_></rects>
      <tilted>0</tilted></_>
    <_>
      <rects>
        <_>
          0 10 16 16 -1.</_>
        <_>
          8 10 8 16 2.</_></rects>
      <tilted>0</tilted></_>
    <_>
      <rects>
        <_>
          0 11 4 8 -1.</_>
        <_>
          2 11 2 8 2.</_></rects>
      <tilted>0</tilted></_>
    <_>
      <rects>
        <_>
          0 11 8 10 -1.</_>
        <_>
          4 11 4 10 2.</_></rects>
      <tilted>0</tilted></_>
    <_>
      <rects>
        <_>
          0 11 12 13 -1.</_>
        <_>
          6 11 6 13 2.</_></rects>
      <tilted>0</tilted></_>
    <_>
      <rects>
        <_>
          0 12 1 18 -1.</_>
        <_>
          0 21 1 9 2.</_></rects>
      <tilted>0</tilted></_>
    <_>
      <rects>
        <_>
          0 12 8 9 -1.</_>
        <_>
          4 12 4 9 2.</_></rects>
      <tilted>0</tilted></_>
    <_>
      <rects>
        <_>
          0 13 1 15 -1.</_>
        <_>
          0 18 1 5 3.</_></rects>
      <tilted>0</tilted></_>
    <_>
      <rects>
        <_>
          0 14 10 16 -1.</_>
        <_>
          5 14 5 16 2.</_></rects>
      <tilted>0</tilted></_>
    <_>
      <rects>
        <_>
          0 16 30 14 -1.</_>
        <_>
          0 23 30 7 2.</_></rects>
      <tilted>0</tilted></_>
    <_>
      <rects>
        <_>
          0 18 13 12 -1.</_>
        <_>
          0 24 13 6 2.</_></rects>
      <tilted>0</tilted></_>
    <_>
      <rects>
        <_>
          0 19 1 9 -1.</_>
        <_>
          0 22 1 3 3.</_></rects>
      <tilted>0</tilted></_>
    <_>
      <rects>
        <_>
          0 24 1 6 -1.</_>
        <_>
          0 26 1 2 3.</_></rects>
      <tilted>0</tilted></_>
    <_>
      <rects>
        <_>
          0 25 28 5 -1.</_>
        <_>
          14 25 14 5 2.</_></rects>
      <tilted>0</tilted></_>
    <_>
      <rects>
        <_>
          0 29 10 1 -1.</_>
        <_>
          5 29 5 1 2.</_></rects>
      <tilted>0</tilted></_>
    <_>
      <rects>
        <_>
          0 29 22 1 -1.</_>
        <_>
          11 29 11 1 2.</_></rects>
      <tilted>0</tilted></_>
    <_>
      <rects>
        <_>
          0 29 24 1 -1.</_>
        <_>
          12 29 12 1 2.</_></rects>
      <tilted>0</tilted></_>
    <_>
      <rects>
        <_>
          1 0 20 1 -1.</_>
        <_>
          11 0 10 1 2.</_></rects>
      <tilted>0</tilted></_>
    <_>
      <rects>
        <_>
          1 27 6 1 -1.</_>
        <_>
          3 27 2 1 3.</_></rects>
      <tilted>0</tilted></_>
    <_>
      <rects>
        <_>
          1 28 24 2 -1.</_>
        <_>
          13 28 12 2 2.</_></rects>
      <tilted>0</tilted></_>
    <_>
      <rects>
        <_>
          1 29 6 1 -1.</_>
        <_>
          3 29 2 1 3.</_></rects>
      <tilted>0</tilted></_>
    <_>
      <rects>
        <_>
          1 29 22 1 -1.</_>
        <_>
          12 29 11 1 2.</_></rects>
      <tilted>0</tilted></_>
    <_>
      <rects>
        <_>
          2 3 28 6 -1.</_>
        <_>
          2 3 14 3 2.</_>
        <_>
          16 6 14 3 2.</_></rects>
      <tilted>0</tilted></_>
    <_>
      <rects>
        <_>
          2 11 28 13 -1.</_>
        <_>
          16 11 14 13 2.</_></rects>
      <tilted>0</tilted></_>
    <_>
      <rects>
        <_>
          2 15 26 10 -1.</_>
        <_>
          2 20 26 5 2.</_></rects>
      <tilted>0</tilted></_>
    <_>
      <rects>
        <_>
          2 18 18 12 -1.</_>
        <_>
          2 24 18 6 2.</_></rects>
      <tilted>0</tilted></_>
    <_>
      <rects>
        <_>
          2 22 20 8 -1.</_>
        <_>
          2 26 20 4 2.</_></rects>
      <tilted>0</tilted></_>
    <_>
      <rects>
        <_>
          2 29 28 1 -1.</_>
        <_>
          16 29 14 1 2.</_></rects>
      <tilted>0</tilted></_>
    <_>
      <rects>
        <_>
          3 0 27 1 -1.</_>
        <_>
          12 0 9 1 3.</_></rects>
      <tilted>0</tilted></_>
    <_>
      <rects>
        <_>
          3 0 19 30 -1.</_>
        <_>
          3 10 19 10 3.</_></rects>
      <tilted>0</tilted></_>
    <_>
      <rects>
        <_>
          3 0 21 30 -1.</_>
        <_>
          3 10 21 10 3.</_></rects>
      <tilted>0</tilted></_>
    <_>
      <rects>
        <_>
          3 2 2 27 -1.</_>
        <_>
          4 2 1 27 2.</_></rects>
      <tilted>0</tilted></_>
    <_>
      <rects>
        <_>
          3 6 23 24 -1.</_>
        <_>
          3 14 23 8 3.</_></rects>
      <tilted>0</tilted></_>
    <_>
      <rects>
        <_>
          3 16 24 14 -1.</_>
        <_>
          3 23 24 7 2.</_></rects>
      <tilted>0</tilted></_>
    <_>
      <rects>
        <_>
          4 16 2 10 -1.</_>
        <_>
          5 16 1 10 2.</_></rects>
      <tilted>0</tilted></_>
    <_>
      <rects>
        <_>
          5 0 14 26 -1.</_>
        <_>
          12 0 7 26 2.</_></rects>
      <tilted>0</tilted></_>
    <_>
      <rects>
        <_>
          5 0 9 30 -1.</_>
        <_>
          5 10 9 10 3.</_></rects>
      <tilted>0</tilted></_>
    <_>
      <rects>
        <_>
          6 0 19 18 -1.</_>
        <_>
          6 9 19 9 2.</_></rects>
      <tilted>0</tilted></_>
    <_>
      <rects>
        <_>
          6 3 16 27 -1.</_>
        <_>
          6 12 16 9 3.</_></rects>
      <tilted>0</tilted></_>
    <_>
      <rects>
        <_>
          6 3 17 27 -1.</_>
        <_>
          6 12 17 9 3.</_></rects>
      <tilted>0</tilted></_>
    <_>
      <rects>
        <_>
          6 6 19 24 -1.</_>
        <_>
          6 14 19 8 3.</_></rects>
      <tilted>0</tilted></_>
    <_>
      <rects>
        <_>
          6 14 1 2 -1.</_>
        <_>
          6 15 1 1 2.</_></rects>
      <tilted>0</tilted></_>
    <_>
      <rects>
        <_>
          6 14 6 2 -1.</_>
        <_>
          6 15 6 1 2.</_></rects>
      <tilted>0</tilted></_>
    <_>
      <rects>
        <_>
          6 14 20 12 -1.</_>
        <_>
          6 20 20 6 2.</_></rects>
      <tilted>0</tilted></_>
    <_>
      <rects>
        <_>
          6 15 2 2 -1.</_>
        <_>
          6 16 2 1 2.</_></rects>
      <tilted>0</tilted></_>
    <_>
      <rects>
        <_>
          6 18 3 4 -1.</_>
        <_>
          7 18 1 4 3.</_></rects>
      <tilted>0</tilted></_>
    <_>
      <rects>
        <_>
          6 18 4 3 -1.</_>
        <_>
          6 19 4 1 3.</_></rects>
      <tilted>0</tilted></_>
    <_>
      <rects>
        <_>
          6 22 14 2 -1.</_>
        <_>
          6 22 7 1 2.</_>
        <_>
          13 23 7 1 2.</_></rects>
      <tilted>0</tilted></_>
    <_>
      <rects>
        <_>
          7 3 3 18 -1.</_>
        <_>
          8 3 1 18 3.</_></rects>
      <tilted>0</tilted></_>
    <_>
      <rects>
        <_>
          7 14 3 16 -1.</_>
        <_>
          8 14 1 16 3.</_></rects>
      <tilted>0</tilted></_>
    <_>
      <rects>
        <_>
          7 19 6 2 -1.</_>
        <_>
          7 20 6 1 2.</_></rects>
      <tilted>0</tilted></_>
    <_>
      <rects>
        <_>
          8 3 3 23 -1.</_>
        <_>
          9 3 1 23 3.</_></rects>
      <tilted>0</tilted></_>
    <_>
      <rects>
        <_>
          8 14 3 13 -1.</_>
        <_>
          9 14 1 13 3.</_></rects>
      <tilted>0</tilted></_>
    <_>
      <rects>
        <_>
          9 1 21 24 -1.</_>
        <_>
          16 1 7 24 3.</_></rects>
      <tilted>0</tilted></_>
    <_>
      <rects>
        <_>
          10 1 9 25 -1.</_>
        <_>
          13 1 3 25 3.</_></rects>
      <tilted>0</tilted></_>
    <_>
      <rects>
        <_>
          10 8 6 2 -1.</_>
        <_>
          12 8 2 2 3.</_></rects>
      <tilted>0</tilted></_>
    <_>
      <rects>
        <_>
          10 16 2 9 -1.</_>
        <_>
          10 19 2 3 3.</_></rects>
      <tilted>0</tilted></_>
    <_>
      <rects>
        <_>
          10 18 2 12 -1.</_>
        <_>
          10 18 1 6 2.</_>
        <_>
          11 24 1 6 2.</_></rects>
      <tilted>0</tilted></_>
    <_>
      <rects>
        <_>
          10 20 16 10 -1.</_>
        <_>
          10 25 16 5 2.</_></rects>
      <tilted>0</tilted></_>
    <_>
      <rects>
        <_>
          11 1 9 24 -1.</_>
        <_>
          14 1 3 24 3.</_></rects>
      <tilted>0</tilted></_>
    <_>
      <rects>
        <_>
          11 1 5 10 -1.</_>
        <_>
          11 6 5 5 2.</_></rects>
      <tilted>0</tilted></_>
    <_>
      <rects>
        <_>
          11 5 9 21 -1.</_>
        <_>
          14 5 3 21 3.</_></rects>
      <tilted>0</tilted></_>
    <_>
      <rects>
        <_>
          11 7 9 21 -1.</_>
        <_>
          11 14 9 7 3.</_></rects>
      <tilted>0</tilted></_>
    <_>
      <rects>
        <_>
          11 15 17 15 -1.</_>
        <_>
          11 20 17 5 3.</_></rects>
      <tilted>0</tilted></_>
    <_>
      <rects>
        <_>
          12 0 15 18 -1.</_>
        <_>
          12 9 15 9 2.</_></rects>
      <tilted>0</tilted></_>
    <_>
      <rects>
        <_>
          12 6 4 4 -1.</_>
        <_>
          14 6 2 4 2.</_></rects>
      <tilted>0</tilted></_>
    <_>
      <rects>
        <_>
          12 8 2 22 -1.</_>
        <_>
          12 8 1 11 2.</_>
        <_>
          13 19 1 11 2.</_></rects>
      <tilted>0</tilted></_>
    <_>
      <rects>
        <_>
          12 8 10 20 -1.</_>
        <_>
          12 18 10 10 2.</_></rects>
      <tilted>0</tilted></_>
    <_>
      <rects>
        <_>
          12 17 2 6 -1.</_>
        <_>
          13 17 1 6 2.</_></rects>
      <tilted>0</tilted></_>
    <_>
      <rects>
        <_>
          13 11 3 1 -1.</_>
        <_>
          14 11 1 1 3.</_></rects>
      <tilted>0</tilted></_>
    <_>
      <rects>
        <_>
          14 0 12 1 -1.</_>
        <_>
          18 0 4 1 3.</_></rects>
      <tilted>0</tilted></_>
    <_>
      <rects>
        <_>
          14 1 9 1 -1.</_>
        <_>
          17 1 3 1 3.</_></rects>
      <tilted>0</tilted></_>
    <_>
      <rects>
        <_>
          14 29 9 1 -1.</_>
        <_>
          17 29 3 1 3.</_></rects>
      <tilted>0</tilted></_>
    <_>
      <rects>
        <_>
          15 16 2 4 -1.</_>
        <_>
          15 16 1 2 2.</_>
        <_>
          16 18 1 2 2.</_></rects>
      <tilted>0</tilted></_>
    <_>
      <rects>
        <_>
          15 19 2 11 -1.</_>
        <_>
          16 19 1 11 2.</_></rects>
      <tilted>0</tilted></_>
    <_>
      <rects>
        <_>
          15 21 3 1 -1.</_>
        <_>
          16 21 1 1 3.</_></rects>
      <tilted>0</tilted></_>
    <_>
      <rects>
        <_>
          16 14 2 4 -1.</_>
        <_>
          16 16 2 2 2.</_></rects>
      <tilted>0</tilted></_>
    <_>
      <rects>
        <_>
          16 18 2 12 -1.</_>
        <_>
          16 24 2 6 2.</_></rects>
      <tilted>0</tilted></_>
    <_>
      <rects>
        <_>
          17 1 2 22 -1.</_>
        <_>
          18 1 1 22 2.</_></rects>
      <tilted>0</tilted></_>
    <_>
      <rects>
        <_>
          17 5 4 2 -1.</_>
        <_>
          17 5 2 1 2.</_>
        <_>
          19 6 2 1 2.</_></rects>
      <tilted>0</tilted></_>
    <_>
      <rects>
        <_>
          17 15 2 7 -1.</_>
        <_>
          18 15 1 7 2.</_></rects>
      <tilted>0</tilted></_>
    <_>
      <rects>
        <_>
          18 5 12 24 -1.</_>
        <_>
          24 5 6 24 2.</_></rects>
      <tilted>0</tilted></_>
    <_>
      <rects>
        <_>
          18 18 2 3 -1.</_>
        <_>
          18 19 2 1 3.</_></rects>
      <tilted>0</tilted></_>
    <_>
      <rects>
        <_>
          19 8 3 14 -1.</_>
        <_>
          20 8 1 14 3.</_></rects>
      <tilted>0</tilted></_>
    <_>
      <rects>
        <_>
          19 14 2 2 -1.</_>
        <_>
          20 14 1 2 2.</_></rects>
      <tilted>0</tilted></_>
    <_>
      <rects>
        <_>
          19 15 3 9 -1.</_>
        <_>
          19 18 3 3 3.</_></rects>
      <tilted>0</tilted></_>
    <_>
      <rects>
        <_>
          19 19 1 2 -1.</_>
        <_>
          19 20 1 1 2.</_></rects>
      <tilted>0</tilted></_>
    <_>
      <rects>
        <_>
          20 10 10 18 -1.</_>
        <_>
          25 10 5 18 2.</_></rects>
      <tilted>0</tilted></_>
    <_>
      <rects>
        <_>
          20 29 9 1 -1.</_>
        <_>
          23 29 3 1 3.</_></rects>
      <tilted>0</tilted></_>
    <_>
      <rects>
        <_>
          22 2 8 28 -1.</_>
        <_>
          26 2 4 28 2.</_></rects>
      <tilted>0</tilted></_>
    <_>
      <rects>
        <_>
          22 13 8 12 -1.</_>
        <_>
          26 13 4 12 2.</_></rects>
      <tilted>0</tilted></_>
    <_>
      <rects>
        <_>
          22 28 3 1 -1.</_>
        <_>
          23 28 1 1 3.</_></rects>
      <tilted>0</tilted></_>
    <_>
      <rects>
        <_>
          23 2 6 27 -1.</_>
        <_>
          25 2 2 27 3.</_></rects>
      <tilted>0</tilted></_>
    <_>
      <rects>
        <_>
          23 14 2 16 -1.</_>
        <_>
          24 14 1 16 2.</_></rects>
      <tilted>0</tilted></_>
    <_>
      <rects>
        <_>
          24 0 1 26 -1.</_>
        <_>
          24 13 1 13 2.</_></rects>
      <tilted>0</tilted></_>
    <_>
      <rects>
        <_>
          24 0 2 28 -1.</_>
        <_>
          25 0 1 28 2.</_></rects>
      <tilted>0</tilted></_>
    <_>
      <rects>
        <_>
          24 0 6 24 -1.</_>
        <_>
          24 12 6 12 2.</_></rects>
      <tilted>0</tilted></_>
    <_>
      <rects>
        <_>
          24 9 6 20 -1.</_>
        <_>
          26 9 2 20 3.</_></rects>
      <tilted>0</tilted></_>
    <_>
      <rects>
        <_>
          24 14 6 14 -1.</_>
        <_>
          27 14 3 14 2.</_></rects>
      <tilted>0</tilted></_>
    <_>
      <rects>
        <_>
          25 0 4 1 -1.</_>
        <_>
          27 0 2 1 2.</_></rects>
      <tilted>0</tilted></_>
    <_>
      <rects>
        <_>
          25 12 2 16 -1.</_>
        <_>
          26 12 1 16 2.</_></rects>
      <tilted>0</tilted></_>
    <_>
      <rects>
        <_>
          25 27 3 3 -1.</_>
        <_>
          26 27 1 3 3.</_></rects>
      <tilted>0</tilted></_>
    <_>
      <rects>
        <_>
          26 0 3 8 -1.</_>
        <_>
          27 0 1 8 3.</_></rects>
      <tilted>0</tilted></_>
    <_>
      <rects>
        <_>
          26 7 4 7 -1.</_>
        <_>
          28 7 2 7 2.</_></rects>
      <tilted>0</tilted></_>
    <_>
      <rects>
        <_>
          26 13 2 17 -1.</_>
        <_>
          27 13 1 17 2.</_></rects>
      <tilted>0</tilted></_>
    <_>
      <rects>
        <_>
          26 15 2 10 -1.</_>
        <_>
          27 15 1 10 2.</_></rects>
      <tilted>0</tilted></_>
    <_>
      <rects>
        <_>
          26 29 4 1 -1.</_>
        <_>
          28 29 2 1 2.</_></rects>
      <tilted>0</tilted></_>
    <_>
      <rects>
        <_>
          28 0 2 20 -1.</_>
        <_>
          28 0 1 10 2.</_>
        <_>
          29 10 1 10 2.</_></rects>
      <tilted>0</tilted></_>
    <_>
      <rects>
        <_>
          29 0 1 12 -1.</_>
        <_>
          29 6 1 6 2.</_></rects>
      <tilted>0</tilted></_>
    <_>
      <rects>
        <_>
          29 0 1 30 -1.</_>
        <_>
          29 10 1 10 3.</_></rects>
      <tilted>0</tilted></_>
    <_>
      <rects>
        <_>
          29 0 1 30 -1.</_>
        <_>
          29 15 1 15 2.</_></rects>
      <tilted>0</tilted></_>
    <_>
      <rects>
        <_>
          29 1 1 18 -1.</_>
        <_>
          29 7 1 6 3.</_></rects>
      <tilted>0</tilted></_>
    <_>
      <rects>
        <_>
          29 1 1 14 -1.</_>
        <_>
          29 8 1 7 2.</_></rects>
      <tilted>0</tilted></_>
    <_>
      <rects>
        <_>
          29 2 1 14 -1.</_>
        <_>
          29 9 1 7 2.</_></rects>
      <tilted>0</tilted></_>
    <_>
      <rects>
        <_>
          29 2 1 28 -1.</_>
        <_>
          29 16 1 14 2.</_></rects>
      <tilted>0</tilted></_>
    <_>
      <rects>
        <_>
          29 5 1 21 -1.</_>
        <_>
          29 12 1 7 3.</_></rects>
      <tilted>0</tilted></_>
    <_>
      <rects>
        <_>
          29 20 1 10 -1.</_>
        <_>
          29 25 1 5 2.</_></rects>
      <tilted>0</tilted></_></features></cascade>
</opencv_storage>
