<?xml version="1.0"?>
<opencv_storage>
<cascade>
  <stageType>BOOST</stageType>
  <featureType>HAAR</featureType>
  <height>24</height>
  <width>24</width>
  <stageParams>
    <boostType>GAB</boostType>
    <minHitRate>9.9500000476837158e-01</minHitRate>
    <maxFalseAlarm>5.0000000000000000e-01</maxFalseAlarm>
    <weightTrimRate>9.4999998807907104e-01</weightTrimRate>
    <maxDepth>1</maxDepth>
    <maxWeakCount>100</maxWeakCount></stageParams>
  <featureParams>
    <maxCatCount>0</maxCatCount>
    <featSize>1</featSize>
    <mode>BASIC</mode></featureParams>
  <stageNum>20</stageNum>
  <stages>
    <!-- stage 0 -->
    <_>
      <maxWeakCount>5</maxWeakCount>
      <stageThreshold>-2.4570405483245850e+00</stageThreshold>
      <weakClassifiers>
        <_>
          <internalNodes>
            0 -1 66 -1.6025474667549133e-01</internalNodes>
          <leafValues>
            6.5656566619873047e-01 -9.2814373970031738e-01</leafValues></_>
        <_>
          <internalNodes>
            0 -1 27 -8.4417462348937988e-02</internalNodes>
          <leafValues>
            3.2934978604316711e-01 -9.1691750288009644e-01</leafValues></_>
        <_>
          <internalNodes>
            0 -1 55 -4.5586565136909485e-01</internalNodes>
          <leafValues>
            8.5082918405532837e-01 -5.6095939874649048e-01</leafValues></_>
        <_>
          <internalNodes>
            0 -1 91 -3.5578444600105286e-02</internalNodes>
          <leafValues>
            8.3857804536819458e-01 -5.2495461702346802e-01</leafValues></_>
        <_>
          <internalNodes>
            0 -1 85 9.3686961918137968e-05</internalNodes>
          <leafValues>
            4.7393479943275452e-01 -9.2725843191146851e-01</leafValues></_></weakClassifiers></_>
    <!-- stage 1 -->
    <_>
      <maxWeakCount>4</maxWeakCount>
      <stageThreshold>-2.2543747425079346e+00</stageThreshold>
      <weakClassifiers>
        <_>
          <internalNodes>
            0 -1 75 1.0674254596233368e-01</internalNodes>
          <leafValues>
            -9.2284262180328369e-01 5.0697672367095947e-01</leafValues></_>
        <_>
          <internalNodes>
            0 -1 28 -9.0825997292995453e-02</internalNodes>
          <leafValues>
            2.3019240796566010e-01 -8.9504611492156982e-01</leafValues></_>
        <_>
          <internalNodes>
            0 -1 82 -1.0391300916671753e-01</internalNodes>
          <leafValues>
            3.5386383533477783e-01 -7.6096743345260620e-01</leafValues></_>
        <_>
          <internalNodes>
            0 -1 15 8.3512469427660108e-04</internalNodes>
          <leafValues>
            3.2448142766952515e-01 -9.5456945896148682e-01</leafValues></_></weakClassifiers></_>
    <!-- stage 2 -->
    <_>
      <maxWeakCount>5</maxWeakCount>
      <stageThreshold>-1.5453455448150635e+00</stageThreshold>
      <weakClassifiers>
        <_>
          <internalNodes>
            0 -1 65 -3.6734044551849365e-01</internalNodes>
          <leafValues>
            6.0000002384185791e-01 -8.8292682170867920e-01</leafValues></_>
        <_>
          <internalNodes>
            0 -1 88 -9.8654508590698242e-02</internalNodes>
          <leafValues>
            8.0844545364379883e-01 -7.1277356147766113e-01</leafValues></_>
        <_>
          <internalNodes>
            0 -1 31 -2.7409927919507027e-02</internalNodes>
          <leafValues>
            5.4663968086242676e-01 -7.2266906499862671e-01</leafValues></_>
        <_>
          <internalNodes>
            0 -1 98 -4.8383693210780621e-03</internalNodes>
          <leafValues>
            -9.8134768009185791e-01 3.0430927872657776e-01</leafValues></_>
        <_>
          <internalNodes>
            0 -1 108 3.2710109371691942e-04</internalNodes>
          <leafValues>
            4.6871459484100342e-01 -7.8443264961242676e-01</leafValues></_></weakClassifiers></_>
    <!-- stage 3 -->
    <_>
      <maxWeakCount>5</maxWeakCount>
      <stageThreshold>-1.6846075057983398e+00</stageThreshold>
      <weakClassifiers>
        <_>
          <internalNodes>
            0 -1 60 -2.7076745033264160e-01</internalNodes>
          <leafValues>
            1.2307692319154739e-01 -8.8510638475418091e-01</leafValues></_>
        <_>
          <internalNodes>
            0 -1 94 7.6668098568916321e-02</internalNodes>
          <leafValues>
            -6.2279242277145386e-01 5.9975850582122803e-01</leafValues></_>
        <_>
          <internalNodes>
            0 -1 46 -1.0199128882959485e-04</internalNodes>
          <leafValues>
            -7.9755651950836182e-01 3.9346510171890259e-01</leafValues></_>
        <_>
          <internalNodes>
            0 -1 46 7.0030015194788575e-05</internalNodes>
          <leafValues>
            3.7775605916976929e-01 -8.4210216999053955e-01</leafValues></_>
        <_>
          <internalNodes>
            0 -1 110 -3.7510126829147339e-02</internalNodes>
          <leafValues>
            4.4950532913208008e-01 -7.3625493049621582e-01</leafValues></_></weakClassifiers></_>
    <!-- stage 4 -->
    <_>
      <maxWeakCount>6</maxWeakCount>
      <stageThreshold>-1.7402340173721313e+00</stageThreshold>
      <weakClassifiers>
        <_>
          <internalNodes>
            0 -1 61 -1.5720842778682709e-01</internalNodes>
          <leafValues>
            1.4079421758651733e-01 -9.0899240970611572e-01</leafValues></_>
        <_>
          <internalNodes>
            0 -1 39 2.1784640848636627e-03</internalNodes>
          <leafValues>
            3.8422979414463043e-02 -9.6427971124649048e-01</leafValues></_>
        <_>
          <internalNodes>
            0 -1 13 2.9738893499597907e-04</internalNodes>
          <leafValues>
            1.8903663754463196e-01 -9.8037284612655640e-01</leafValues></_>
        <_>
          <internalNodes>
            0 -1 49 -1.1950348271057010e-03</internalNodes>
          <leafValues>
            -8.8288819789886475e-01 2.8867974877357483e-01</leafValues></_>
        <_>
          <internalNodes>
            0 -1 42 4.7228130279108882e-04</internalNodes>
          <leafValues>
            3.6548238992691040e-01 -9.0152680873870850e-01</leafValues></_>
        <_>
          <internalNodes>
            0 -1 99 -8.0694608390331268e-02</internalNodes>
          <leafValues>
            5.5751258134841919e-01 -5.4129540920257568e-01</leafValues></_></weakClassifiers></_>
    <!-- stage 5 -->
    <_>
      <maxWeakCount>9</maxWeakCount>
      <stageThreshold>-2.2711484432220459e+00</stageThreshold>
      <weakClassifiers>
        <_>
          <internalNodes>
            0 -1 146 5.1341548562049866e-02</internalNodes>
          <leafValues>
            -8.3896619081497192e-01 2.2680412232875824e-01</leafValues></_>
        <_>
          <internalNodes>
            0 -1 87 -5.4208807647228241e-02</internalNodes>
          <leafValues>
            2.8799635171890259e-01 -7.8155851364135742e-01</leafValues></_>
        <_>
          <internalNodes>
            0 -1 25 -2.1142467856407166e-02</internalNodes>
          <leafValues>
            2.4997103214263916e-01 -8.2995724678039551e-01</leafValues></_>
        <_>
          <internalNodes>
            0 -1 50 -4.0632268064655364e-04</internalNodes>
          <leafValues>
            -8.6347061395645142e-01 3.6444550752639771e-01</leafValues></_>
        <_>
          <internalNodes>
            0 -1 71 2.1834220737218857e-02</internalNodes>
          <leafValues>
            -6.8485617637634277e-01 4.5009866356849670e-01</leafValues></_>
        <_>
          <internalNodes>
            0 -1 152 -3.4711116459220648e-03</internalNodes>
          <leafValues>
            -8.0140036344528198e-01 2.6998460292816162e-01</leafValues></_>
        <_>
          <internalNodes>
            0 -1 34 -5.5334152420982718e-04</internalNodes>
          <leafValues>
            3.1610623002052307e-01 -6.2262338399887085e-01</leafValues></_>
        <_>
          <internalNodes>
            0 -1 144 2.6371056446805596e-04</internalNodes>
          <leafValues>
            2.0181688666343689e-01 -9.1825914382934570e-01</leafValues></_>
        <_>
          <internalNodes>
            0 -1 135 -2.7155837044119835e-02</internalNodes>
          <leafValues>
            6.5056604146957397e-01 -3.6487555503845215e-01</leafValues></_></weakClassifiers></_>
    <!-- stage 6 -->
    <_>
      <maxWeakCount>4</maxWeakCount>
      <stageThreshold>-1.3687227964401245e+00</stageThreshold>
      <weakClassifiers>
        <_>
          <internalNodes>
            0 -1 32 -7.0304274559020996e-02</internalNodes>
          <leafValues>
            1.1917098611593246e-01 -8.1727904081344604e-01</leafValues></_>
        <_>
          <internalNodes>
            0 -1 69 1.0954897152259946e-04</internalNodes>
          <leafValues>
            1.4244452118873596e-01 -9.0059161186218262e-01</leafValues></_>
        <_>
          <internalNodes>
            0 -1 143 -7.4423071055207402e-05</internalNodes>
          <leafValues>
            -9.0292239189147949e-01 2.1168752014636993e-01</leafValues></_>
        <_>
          <internalNodes>
            0 -1 81 -2.4496905505657196e-02</internalNodes>
          <leafValues>
            3.1562021374702454e-01 -8.4317934513092041e-01</leafValues></_></weakClassifiers></_>
    <!-- stage 7 -->
    <_>
      <maxWeakCount>6</maxWeakCount>
      <stageThreshold>-1.9269772768020630e+00</stageThreshold>
      <weakClassifiers>
        <_>
          <internalNodes>
            0 -1 64 -4.8279368877410889e-01</internalNodes>
          <leafValues>
            6.1403506994247437e-01 -8.0110496282577515e-01</leafValues></_>
        <_>
          <internalNodes>
            0 -1 59 7.6152764260768890e-02</internalNodes>
          <leafValues>
            -6.6240268945693970e-01 5.9849637746810913e-01</leafValues></_>
        <_>
          <internalNodes>
            0 -1 35 -1.0859355330467224e-02</internalNodes>
          <leafValues>
            3.1110429763793945e-01 -7.7131831645965576e-01</leafValues></_>
        <_>
          <internalNodes>
            0 -1 107 -6.6968658939003944e-04</internalNodes>
          <leafValues>
            -8.8967752456665039e-01 2.1807821094989777e-01</leafValues></_>
        <_>
          <internalNodes>
            0 -1 62 -3.2630667090415955e-01</internalNodes>
          <leafValues>
            3.9736169576644897e-01 -4.9126383662223816e-01</leafValues></_>
        <_>
          <internalNodes>
            0 -1 137 -1.0603989721857943e-05</internalNodes>
          <leafValues>
            5.8103424310684204e-01 -3.3327826857566833e-01</leafValues></_></weakClassifiers></_>
    <!-- stage 8 -->
    <_>
      <maxWeakCount>9</maxWeakCount>
      <stageThreshold>-1.8641006946563721e+00</stageThreshold>
      <weakClassifiers>
        <_>
          <internalNodes>
            0 -1 116 6.3962332904338837e-02</internalNodes>
          <leafValues>
            -8.6389851570129395e-01 -1.5315315127372742e-01</leafValues></_>
        <_>
          <internalNodes>
            0 -1 63 -6.1345696449279785e-01</internalNodes>
          <leafValues>
            8.5162967443466187e-01 -4.4948959350585938e-01</leafValues></_>
        <_>
          <internalNodes>
            0 -1 134 -1.0787916835397482e-03</internalNodes>
          <leafValues>
            2.7493968605995178e-01 -8.0845367908477783e-01</leafValues></_>
        <_>
          <internalNodes>
            0 -1 95 -4.5089653576724231e-04</internalNodes>
          <leafValues>
            -8.3267647027969360e-01 2.1543510258197784e-01</leafValues></_>
        <_>
          <internalNodes>
            0 -1 19 -1.6509240958839655e-04</internalNodes>
          <leafValues>
            -7.1388614177703857e-01 2.5854638218879700e-01</leafValues></_>
        <_>
          <internalNodes>
            0 -1 141 9.1958953998982906e-04</internalNodes>
          <leafValues>
            -7.3757040500640869e-01 2.6044002175331116e-01</leafValues></_>
        <_>
          <internalNodes>
            0 -1 11 8.1420645117759705e-02</internalNodes>
          <leafValues>
            1.4804010093212128e-01 -8.8637506961822510e-01</leafValues></_>
        <_>
          <internalNodes>
            0 -1 109 -6.5214866772294044e-03</internalNodes>
          <leafValues>
            -7.7255666255950928e-01 2.2248849272727966e-01</leafValues></_>
        <_>
          <internalNodes>
            0 -1 150 4.9472604878246784e-03</internalNodes>
          <leafValues>
            1.5080146491527557e-01 -9.0035736560821533e-01</leafValues></_></weakClassifiers></_>
    <!-- stage 9 -->
    <_>
      <maxWeakCount>9</maxWeakCount>
      <stageThreshold>-1.9962519407272339e+00</stageThreshold>
      <weakClassifiers>
        <_>
          <internalNodes>
            0 -1 57 -6.3723027706146240e-01</internalNodes>
          <leafValues>
            1.9587628543376923e-01 -7.4252039194107056e-01</leafValues></_>
        <_>
          <internalNodes>
            0 -1 43 -2.2023252677172422e-03</internalNodes>
          <leafValues>
            -8.1666731834411621e-01 1.1446531116962433e-01</leafValues></_>
        <_>
          <internalNodes>
            0 -1 131 3.7493251264095306e-02</internalNodes>
          <leafValues>
            -8.0361276865005493e-01 2.1676579117774963e-01</leafValues></_>
        <_>
          <internalNodes>
            0 -1 3 -7.9166833311319351e-03</internalNodes>
          <leafValues>
            -8.0225628614425659e-01 1.9741831719875336e-01</leafValues></_>
        <_>
          <internalNodes>
            0 -1 2 6.9992756471037865e-04</internalNodes>
          <leafValues>
            2.6657193899154663e-01 -7.6525068283081055e-01</leafValues></_>
        <_>
          <internalNodes>
            0 -1 30 -2.3225557059049606e-02</internalNodes>
          <leafValues>
            7.0346283912658691e-01 -3.2974612712860107e-01</leafValues></_>
        <_>
          <internalNodes>
            0 -1 7 -2.6124250143766403e-04</internalNodes>
          <leafValues>
            -6.6269290447235107e-01 3.3983534574508667e-01</leafValues></_>
        <_>
          <internalNodes>
            0 -1 17 -1.1239928752183914e-01</internalNodes>
          <leafValues>
            3.5269609093666077e-01 -5.1510286331176758e-01</leafValues></_>
        <_>
          <internalNodes>
            0 -1 119 -9.3713579190080054e-06</internalNodes>
          <leafValues>
            5.0826191902160645e-01 -3.8716334104537964e-01</leafValues></_></weakClassifiers></_>
    <!-- stage 10 -->
    <_>
      <maxWeakCount>4</maxWeakCount>
      <stageThreshold>-1.6209733486175537e+00</stageThreshold>
      <weakClassifiers>
        <_>
          <internalNodes>
            0 -1 74 2.1987572312355042e-01</internalNodes>
          <leafValues>
            -8.5232067108154297e-01 3.1746033579111099e-02</leafValues></_>
        <_>
          <internalNodes>
            0 -1 36 -2.4859706172719598e-05</internalNodes>
          <leafValues>
            1.8845997750759125e-01 -8.5696560144424438e-01</leafValues></_>
        <_>
          <internalNodes>
            0 -1 122 1.4005398750305176e-01</internalNodes>
          <leafValues>
            -4.4743955135345459e-01 5.5120044946670532e-01</leafValues></_>
        <_>
          <internalNodes>
            0 -1 136 -2.3966066539287567e-02</internalNodes>
          <leafValues>
            5.3575247526168823e-01 -4.4912391901016235e-01</leafValues></_></weakClassifiers></_>
    <!-- stage 11 -->
    <_>
      <maxWeakCount>8</maxWeakCount>
      <stageThreshold>-1.8526086807250977e+00</stageThreshold>
      <weakClassifiers>
        <_>
          <internalNodes>
            0 -1 77 -1.9463694095611572e-01</internalNodes>
          <leafValues>
            1.3868613541126251e-01 -7.7046096324920654e-01</leafValues></_>
        <_>
          <internalNodes>
            0 -1 93 1.7332741990685463e-02</internalNodes>
          <leafValues>
            -7.1884047985076904e-01 1.9099131226539612e-01</leafValues></_>
        <_>
          <internalNodes>
            0 -1 72 2.1906722337007523e-02</internalNodes>
          <leafValues>
            -6.7222732305526733e-01 2.2626663744449615e-01</leafValues></_>
        <_>
          <internalNodes>
            0 -1 140 -1.1317538337607402e-05</internalNodes>
          <leafValues>
            5.3778529167175293e-01 -3.2442021369934082e-01</leafValues></_>
        <_>
          <internalNodes>
            0 -1 51 1.8164586508646607e-03</internalNodes>
          <leafValues>
            2.3579992353916168e-01 -9.1282021999359131e-01</leafValues></_>
        <_>
          <internalNodes>
            0 -1 129 -6.7653984297066927e-04</internalNodes>
          <leafValues>
            1.5088774263858795e-01 -7.7278077602386475e-01</leafValues></_>
        <_>
          <internalNodes>
            0 -1 10 3.4665141254663467e-02</internalNodes>
          <leafValues>
            2.3704314231872559e-01 -6.9128078222274780e-01</leafValues></_>
        <_>
          <internalNodes>
            0 -1 26 -1.1324834078550339e-02</internalNodes>
          <leafValues>
            -6.4941149950027466e-01 2.8381285071372986e-01</leafValues></_></weakClassifiers></_>
    <!-- stage 12 -->
    <_>
      <maxWeakCount>11</maxWeakCount>
      <stageThreshold>-1.8549976348876953e+00</stageThreshold>
      <weakClassifiers>
        <_>
          <internalNodes>
            0 -1 145 -4.2928613722324371e-02</internalNodes>
          <leafValues>
            8.7999999523162842e-02 -7.5441861152648926e-01</leafValues></_>
        <_>
          <internalNodes>
            0 -1 41 -5.3108390420675278e-04</internalNodes>
          <leafValues>
            -8.3355969190597534e-01 1.6999611631035805e-02</leafValues></_>
        <_>
          <internalNodes>
            0 -1 14 -7.3618263006210327e-02</internalNodes>
          <leafValues>
            3.0204996466636658e-01 -4.7519558668136597e-01</leafValues></_>
        <_>
          <internalNodes>
            0 -1 1 2.5530257262289524e-03</internalNodes>
          <leafValues>
            1.9261671602725983e-01 -8.5914009809494019e-01</leafValues></_>
        <_>
          <internalNodes>
            0 -1 8 -6.1677745543420315e-04</internalNodes>
          <leafValues>
            1.4880642294883728e-01 -8.6817455291748047e-01</leafValues></_>
        <_>
          <internalNodes>
            0 -1 6 -2.4450258933939040e-04</internalNodes>
          <leafValues>
            -7.9058712720870972e-01 1.4259655773639679e-01</leafValues></_>
        <_>
          <internalNodes>
            0 -1 133 -9.7486372396815568e-06</internalNodes>
          <leafValues>
            4.5260646939277649e-01 -3.2655099034309387e-01</leafValues></_>
        <_>
          <internalNodes>
            0 -1 53 1.0996455326676369e-02</internalNodes>
          <leafValues>
            -5.5647146701812744e-01 2.5546663999557495e-01</leafValues></_>
        <_>
          <internalNodes>
            0 -1 70 2.5839611887931824e-02</internalNodes>
          <leafValues>
            1.9881312549114227e-01 -6.4644128084182739e-01</leafValues></_>
        <_>
          <internalNodes>
            0 -1 89 1.0061315151688177e-05</internalNodes>
          <leafValues>
            -3.3119183778762817e-01 4.1230762004852295e-01</leafValues></_>
        <_>
          <internalNodes>
            0 -1 44 1.0220940748695284e-04</internalNodes>
          <leafValues>
            1.6247992217540741e-01 -9.1685771942138672e-01</leafValues></_></weakClassifiers></_>
    <!-- stage 13 -->
    <_>
      <maxWeakCount>10</maxWeakCount>
      <stageThreshold>-1.7621486186981201e+00</stageThreshold>
      <weakClassifiers>
        <_>
          <internalNodes>
            0 -1 33 -2.2268857806921005e-02</internalNodes>
          <leafValues>
            -1.9111111760139465e-01 -7.7641028165817261e-01</leafValues></_>
        <_>
          <internalNodes>
            0 -1 107 1.1685576755553484e-03</internalNodes>
          <leafValues>
            3.7586450576782227e-02 -8.2947736978530884e-01</leafValues></_>
        <_>
          <internalNodes>
            0 -1 154 -2.1270816214382648e-03</internalNodes>
          <leafValues>
            -7.9960155487060547e-01 1.4717313647270203e-01</leafValues></_>
        <_>
          <internalNodes>
            0 -1 153 1.4826382976025343e-03</internalNodes>
          <leafValues>
            1.5742111206054688e-01 -8.3306241035461426e-01</leafValues></_>
        <_>
          <internalNodes>
            0 -1 141 6.5716754761524498e-05</internalNodes>
          <leafValues>
            -8.1638473272323608e-01 1.7616054415702820e-01</leafValues></_>
        <_>
          <internalNodes>
            0 -1 96 -1.5871444717049599e-02</internalNodes>
          <leafValues>
            -6.5375024080276489e-01 1.4676780998706818e-01</leafValues></_>
        <_>
          <internalNodes>
            0 -1 148 4.7663045115768909e-03</internalNodes>
          <leafValues>
            1.7541486024856567e-01 -6.8946808576583862e-01</leafValues></_>
        <_>
          <internalNodes>
            0 -1 115 1.8877899274230003e-03</internalNodes>
          <leafValues>
            -7.0749270915985107e-01 1.4959734678268433e-01</leafValues></_>
        <_>
          <internalNodes>
            0 -1 79 6.5112940967082977e-02</internalNodes>
          <leafValues>
            -3.3066260814666748e-01 4.2538204789161682e-01</leafValues></_>
        <_>
          <internalNodes>
            0 -1 111 -1.3756653061136603e-05</internalNodes>
          <leafValues>
            5.7760375738143921e-01 -2.9117619991302490e-01</leafValues></_></weakClassifiers></_>
    <!-- stage 14 -->
    <_>
      <maxWeakCount>11</maxWeakCount>
      <stageThreshold>-2.1008024215698242e+00</stageThreshold>
      <weakClassifiers>
        <_>
          <internalNodes>
            0 -1 78 -4.7597408294677734e-01</internalNodes>
          <leafValues>
            5.0000000000000000e-01 -7.1107268333435059e-01</leafValues></_>
        <_>
          <internalNodes>
            0 -1 54 -1.8344554305076599e-01</internalNodes>
          <leafValues>
            3.5529622435569763e-01 -4.8034217953681946e-01</leafValues></_>
        <_>
          <internalNodes>
            0 -1 0 -4.1171209886670113e-03</internalNodes>
          <leafValues>
            -6.5594196319580078e-01 2.1945598721504211e-01</leafValues></_>
        <_>
          <internalNodes>
            0 -1 149 9.2872828245162964e-03</internalNodes>
          <leafValues>
            -1.9327740371227264e-01 5.9716743230819702e-01</leafValues></_>
        <_>
          <internalNodes>
            0 -1 68 -2.1724824910052121e-04</internalNodes>
          <leafValues>
            -8.0302798748016357e-01 1.6884036362171173e-01</leafValues></_>
        <_>
          <internalNodes>
            0 -1 138 1.9364999388926663e-05</internalNodes>
          <leafValues>
            -3.2332316040992737e-01 4.2801156640052795e-01</leafValues></_>
        <_>
          <internalNodes>
            0 -1 52 -5.0993245095014572e-03</internalNodes>
          <leafValues>
            -6.2457501888275146e-01 2.2147575020790100e-01</leafValues></_>
        <_>
          <internalNodes>
            0 -1 73 -2.3807523772120476e-02</internalNodes>
          <leafValues>
            -7.0276254415512085e-01 1.8505188822746277e-01</leafValues></_>
        <_>
          <internalNodes>
            0 -1 20 -4.9150418490171432e-02</internalNodes>
          <leafValues>
            2.4902740120887756e-01 -5.8310174942016602e-01</leafValues></_>
        <_>
          <internalNodes>
            0 -1 155 3.9464537985622883e-03</internalNodes>
          <leafValues>
            1.3541421294212341e-01 -8.8128060102462769e-01</leafValues></_>
        <_>
          <internalNodes>
            0 -1 104 3.8834554143249989e-03</internalNodes>
          <leafValues>
            1.0612730681896210e-01 -8.3432304859161377e-01</leafValues></_></weakClassifiers></_>
    <!-- stage 15 -->
    <_>
      <maxWeakCount>8</maxWeakCount>
      <stageThreshold>-1.4181168079376221e+00</stageThreshold>
      <weakClassifiers>
        <_>
          <internalNodes>
            0 -1 101 1.1363437806721777e-05</internalNodes>
          <leafValues>
            -7.8019589185714722e-01 -2.9537367820739746e-01</leafValues></_>
        <_>
          <internalNodes>
            0 -1 117 -2.5538140907883644e-02</internalNodes>
          <leafValues>
            3.6833059042692184e-02 -7.1220803260803223e-01</leafValues></_>
        <_>
          <internalNodes>
            0 -1 147 4.2693376541137695e-02</internalNodes>
          <leafValues>
            -2.8308227658271790e-01 4.4197782874107361e-01</leafValues></_>
        <_>
          <internalNodes>
            0 -1 97 1.7688004299998283e-02</internalNodes>
          <leafValues>
            1.4471876621246338e-01 -8.8467758893966675e-01</leafValues></_>
        <_>
          <internalNodes>
            0 -1 40 4.2393514886498451e-03</internalNodes>
          <leafValues>
            1.4091943204402924e-01 -8.2860296964645386e-01</leafValues></_>
        <_>
          <internalNodes>
            0 -1 40 -3.3905047457665205e-03</internalNodes>
          <leafValues>
            -6.4742434024810791e-01 1.8992061913013458e-01</leafValues></_>
        <_>
          <internalNodes>
            0 -1 126 -9.3713579190080054e-06</internalNodes>
          <leafValues>
            5.2635520696640015e-01 -3.5651016235351563e-01</leafValues></_>
        <_>
          <internalNodes>
            0 -1 127 9.7486372396815568e-06</internalNodes>
          <leafValues>
            -3.6418938636779785e-01 4.0606081485748291e-01</leafValues></_></weakClassifiers></_>
    <!-- stage 16 -->
    <_>
      <maxWeakCount>12</maxWeakCount>
      <stageThreshold>-1.6935776472091675e+00</stageThreshold>
      <weakClassifiers>
        <_>
          <internalNodes>
            0 -1 29 -1.2945055961608887e-02</internalNodes>
          <leafValues>
            4.1666667908430099e-02 -7.2826087474822998e-01</leafValues></_>
        <_>
          <internalNodes>
            0 -1 47 -7.7209690061863512e-05</internalNodes>
          <leafValues>
            5.1691748201847076e-02 -6.9442856311798096e-01</leafValues></_>
        <_>
          <internalNodes>
            0 -1 4 -6.4430001657456160e-05</internalNodes>
          <leafValues>
            -8.0407875776290894e-01 1.3151028752326965e-01</leafValues></_>
        <_>
          <internalNodes>
            0 -1 123 -9.3713579190080054e-06</internalNodes>
          <leafValues>
            3.8542941212654114e-01 -3.0265101790428162e-01</leafValues></_>
        <_>
          <internalNodes>
            0 -1 121 1.0127709174412303e-05</internalNodes>
          <leafValues>
            -3.0990600585937500e-01 4.8178407549858093e-01</leafValues></_>
        <_>
          <internalNodes>
            0 -1 152 -1.6246596351265907e-03</internalNodes>
          <leafValues>
            -6.6544473171234131e-01 1.6401498019695282e-01</leafValues></_>
        <_>
          <internalNodes>
            0 -1 128 3.8844011723995209e-02</internalNodes>
          <leafValues>
            -3.0447167158126831e-01 3.8540953397750854e-01</leafValues></_>
        <_>
          <internalNodes>
            0 -1 103 -2.4376693181693554e-03</internalNodes>
          <leafValues>
            -6.4430481195449829e-01 1.8994481861591339e-01</leafValues></_>
        <_>
          <internalNodes>
            0 -1 76 -5.9913665056228638e-02</internalNodes>
          <leafValues>
            4.3346548080444336e-01 -3.0247709155082703e-01</leafValues></_>
        <_>
          <internalNodes>
            0 -1 67 -6.2905941158533096e-03</internalNodes>
          <leafValues>
            -5.9823173284530640e-01 1.9667376577854156e-01</leafValues></_>
        <_>
          <internalNodes>
            0 -1 92 1.0909064258157741e-05</internalNodes>
          <leafValues>
            -3.0122154951095581e-01 3.7973091006278992e-01</leafValues></_>
        <_>
          <internalNodes>
            0 -1 38 -4.9648951971903443e-05</internalNodes>
          <leafValues>
            -8.9798587560653687e-01 1.3230061531066895e-01</leafValues></_></weakClassifiers></_>
    <!-- stage 17 -->
    <_>
      <maxWeakCount>13</maxWeakCount>
      <stageThreshold>-1.7281149625778198e+00</stageThreshold>
      <weakClassifiers>
        <_>
          <internalNodes>
            0 -1 23 -1.5067191794514656e-02</internalNodes>
          <leafValues>
            -2.8906250000000000e-01 -7.6906782388687134e-01</leafValues></_>
        <_>
          <internalNodes>
            0 -1 37 4.1305214836029336e-05</internalNodes>
          <leafValues>
            -1.2651981785893440e-02 -7.1158510446548462e-01</leafValues></_>
        <_>
          <internalNodes>
            0 -1 112 1.0061315151688177e-05</internalNodes>
          <leafValues>
            -2.7768018841743469e-01 4.0415427088737488e-01</leafValues></_>
        <_>
          <internalNodes>
            0 -1 86 -1.7362661659717560e-02</internalNodes>
          <leafValues>
            -5.5764579772949219e-01 2.3017756640911102e-01</leafValues></_>
        <_>
          <internalNodes>
            0 -1 9 -9.8292855545878410e-04</internalNodes>
          <leafValues>
            1.5016953647136688e-01 -5.6945621967315674e-01</leafValues></_>
        <_>
          <internalNodes>
            0 -1 56 1.2283781543374062e-02</internalNodes>
          <leafValues>
            -4.9812462925910950e-01 2.0177359879016876e-01</leafValues></_>
        <_>
          <internalNodes>
            0 -1 100 -2.1405521692940965e-05</internalNodes>
          <leafValues>
            3.9338120818138123e-01 -2.8242260217666626e-01</leafValues></_>
        <_>
          <internalNodes>
            0 -1 48 8.3357527852058411e-02</internalNodes>
          <leafValues>
            -3.0087086558341980e-01 4.0916097164154053e-01</leafValues></_>
        <_>
          <internalNodes>
            0 -1 21 4.1053211316466331e-03</internalNodes>
          <leafValues>
            1.0969078540802002e-01 -8.8650727272033691e-01</leafValues></_>
        <_>
          <internalNodes>
            0 -1 12 -6.3755095005035400e-01</internalNodes>
          <leafValues>
            6.0443294048309326e-01 -2.0499610900878906e-01</leafValues></_>
        <_>
          <internalNodes>
            0 -1 120 -2.0970855985069647e-05</internalNodes>
          <leafValues>
            4.7898811101913452e-01 -2.2367992997169495e-01</leafValues></_>
        <_>
          <internalNodes>
            0 -1 84 1.3848426751792431e-03</internalNodes>
          <leafValues>
            1.5828345715999603e-01 -7.2559410333633423e-01</leafValues></_>
        <_>
          <internalNodes>
            0 -1 58 2.0640452930820175e-05</internalNodes>
          <leafValues>
            -3.2037249207496643e-01 3.2276445627212524e-01</leafValues></_></weakClassifiers></_>
    <!-- stage 18 -->
    <_>
      <maxWeakCount>8</maxWeakCount>
      <stageThreshold>-1.3884538412094116e+00</stageThreshold>
      <weakClassifiers>
        <_>
          <internalNodes>
            0 -1 22 -7.7363816089928150e-03</internalNodes>
          <leafValues>
            -2.1182265877723694e-01 -7.5927782058715820e-01</leafValues></_>
        <_>
          <internalNodes>
            0 -1 102 -1.9763829186558723e-05</internalNodes>
          <leafValues>
            2.1926273405551910e-01 -4.1728171706199646e-01</leafValues></_>
        <_>
          <internalNodes>
            0 -1 80 -1.9400840392336249e-04</internalNodes>
          <leafValues>
            -8.3398848772048950e-01 1.1636143177747726e-01</leafValues></_>
        <_>
          <internalNodes>
            0 -1 105 9.3713579190080054e-06</internalNodes>
          <leafValues>
            -2.6257503032684326e-01 4.9769255518913269e-01</leafValues></_>
        <_>
          <internalNodes>
            0 -1 16 -2.1396718919277191e-02</internalNodes>
          <leafValues>
            1.6440244019031525e-01 -7.0635467767715454e-01</leafValues></_>
        <_>
          <internalNodes>
            0 -1 18 -3.0137799680233002e-02</internalNodes>
          <leafValues>
            -3.9952835440635681e-01 2.8181296586990356e-01</leafValues></_>
        <_>
          <internalNodes>
            0 -1 90 -1.0554096661508083e-05</internalNodes>
          <leafValues>
            2.6479375362396240e-01 -3.6161652207374573e-01</leafValues></_>
        <_>
          <internalNodes>
            0 -1 118 1.1582199949771166e-03</internalNodes>
          <leafValues>
            1.7146830260753632e-01 -7.3189294338226318e-01</leafValues></_></weakClassifiers></_>
    <!-- stage 19 -->
    <_>
      <maxWeakCount>14</maxWeakCount>
      <stageThreshold>-1.6407775878906250e+00</stageThreshold>
      <weakClassifiers>
        <_>
          <internalNodes>
            0 -1 24 -3.3682979643344879e-02</internalNodes>
          <leafValues>
            -2.2051282227039337e-01 -7.5323385000228882e-01</leafValues></_>
        <_>
          <internalNodes>
            0 -1 45 -5.3037118050269783e-05</internalNodes>
          <leafValues>
            -8.0829161405563354e-01 -3.4936051815748215e-02</leafValues></_>
        <_>
          <internalNodes>
            0 -1 5 -4.1800551116466522e-02</internalNodes>
          <leafValues>
            1.4394497871398926e-01 -5.7285100221633911e-01</leafValues></_>
        <_>
          <internalNodes>
            0 -1 130 -2.6504585985094309e-03</internalNodes>
          <leafValues>
            -9.3851721286773682e-01 9.3885377049446106e-02</leafValues></_>
        <_>
          <internalNodes>
            0 -1 139 -9.9878698165412061e-06</internalNodes>
          <leafValues>
            4.5550677180290222e-01 -1.9943943619728088e-01</leafValues></_>
        <_>
          <internalNodes>
            0 -1 106 6.9248548243194818e-05</internalNodes>
          <leafValues>
            9.3032822012901306e-02 -8.3451718091964722e-01</leafValues></_>
        <_>
          <internalNodes>
            0 -1 124 -9.3713579190080054e-06</internalNodes>
          <leafValues>
            3.6949360370635986e-01 -2.5041323900222778e-01</leafValues></_>
        <_>
          <internalNodes>
            0 -1 83 -6.1930296942591667e-03</internalNodes>
          <leafValues>
            -6.2636238336563110e-01 1.4409308135509491e-01</leafValues></_>
        <_>
          <internalNodes>
            0 -1 114 1.0554096661508083e-05</internalNodes>
          <leafValues>
            -2.8510499000549316e-01 3.5279494524002075e-01</leafValues></_>
        <_>
          <internalNodes>
            0 -1 151 2.2245636500883847e-05</internalNodes>
          <leafValues>
            1.1108805984258652e-01 -8.1658130884170532e-01</leafValues></_>
        <_>
          <internalNodes>
            0 -1 125 9.9714125099126250e-06</internalNodes>
          <leafValues>
            -2.4841073155403137e-01 3.5917991399765015e-01</leafValues></_>
        <_>
          <internalNodes>
            0 -1 132 6.3057045917958021e-04</internalNodes>
          <leafValues>
            1.2001683562994003e-01 -7.8925383090972900e-01</leafValues></_>
        <_>
          <internalNodes>
            0 -1 113 -9.9878698165412061e-06</internalNodes>
          <leafValues>
            2.9623839259147644e-01 -2.8345698118209839e-01</leafValues></_>
        <_>
          <internalNodes>
            0 -1 142 -3.6930010537616909e-05</internalNodes>
          <leafValues>
            -8.1615859270095825e-01 1.0713130235671997e-01</leafValues></_></weakClassifiers></_></stages>
  <features>
    <_>
      <rects>
        <_>
          0 0 1 16 -1.</_>
        <_>
          0 8 1 8 2.</_></rects>
      <tilted>0</tilted></_>
    <_>
      <rects>
        <_>
          0 0 1 24 -1.</_>
        <_>
          0 8 1 8 3.</_></rects>
      <tilted>0</tilted></_>
    <_>
      <rects>
        <_>
          0 0 1 20 -1.</_>
        <_>
          0 10 1 10 2.</_></rects>
      <tilted>0</tilted></_>
    <_>
      <rects>
        <_>
          0 0 1 22 -1.</_>
        <_>
          0 11 1 11 2.</_></rects>
      <tilted>0</tilted></_>
    <_>
      <rects>
        <_>
          0 0 8 1 -1.</_>
        <_>
          4 0 4 1 2.</_></rects>
      <tilted>0</tilted></_>
    <_>
      <rects>
        <_>
          0 0 8 22 -1.</_>
        <_>
          4 0 4 22 2.</_></rects>
      <tilted>0</tilted></_>
    <_>
      <rects>
        <_>
          0 0 12 1 -1.</_>
        <_>
          6 0 6 1 2.</_></rects>
      <tilted>0</tilted></_>
    <_>
      <rects>
        <_>
          0 0 24 1 -1.</_>
        <_>
          8 0 8 1 3.</_></rects>
      <tilted>0</tilted></_>
    <_>
      <rects>
        <_>
          0 0 18 16 -1.</_>
        <_>
          9 0 9 16 2.</_></rects>
      <tilted>0</tilted></_>
    <_>
      <rects>
        <_>
          0 0 22 16 -1.</_>
        <_>
          0 0 11 8 2.</_>
        <_>
          11 8 11 8 2.</_></rects>
      <tilted>0</tilted></_>
    <_>
      <rects>
        <_>
          0 0 24 20 -1.</_>
        <_>
          0 0 12 10 2.</_>
        <_>
          12 10 12 10 2.</_></rects>
      <tilted>0</tilted></_>
    <_>
      <rects>
        <_>
          0 0 24 17 -1.</_>
        <_>
          12 0 12 17 2.</_></rects>
      <tilted>0</tilted></_>
    <_>
      <rects>
        <_>
          0 0 22 21 -1.</_>
        <_>
          0 7 22 7 3.</_></rects>
      <tilted>0</tilted></_>
    <_>
      <rects>
        <_>
          0 1 4 6 -1.</_>
        <_>
          2 1 2 6 2.</_></rects>
      <tilted>0</tilted></_>
    <_>
      <rects>
        <_>
          0 1 8 22 -1.</_>
        <_>
          4 1 4 22 2.</_></rects>
      <tilted>0</tilted></_>
    <_>
      <rects>
        <_>
          0 1 21 2 -1.</_>
        <_>
          7 1 7 2 3.</_></rects>
      <tilted>0</tilted></_>
    <_>
      <rects>
        <_>
          0 1 22 20 -1.</_>
        <_>
          11 1 11 20 2.</_></rects>
      <tilted>0</tilted></_>
    <_>
      <rects>
        <_>
          0 2 10 20 -1.</_>
        <_>
          5 2 5 20 2.</_></rects>
      <tilted>0</tilted></_>
    <_>
      <rects>
        <_>
          0 2 24 22 -1.</_>
        <_>
          12 2 12 22 2.</_></rects>
      <tilted>0</tilted></_>
    <_>
      <rects>
        <_>
          0 4 1 6 -1.</_>
        <_>
          0 7 1 3 2.</_></rects>
      <tilted>0</tilted></_>
    <_>
      <rects>
        <_>
          0 4 22 17 -1.</_>
        <_>
          11 4 11 17 2.</_></rects>
      <tilted>0</tilted></_>
    <_>
      <rects>
        <_>
          0 5 1 14 -1.</_>
        <_>
          0 12 1 7 2.</_></rects>
      <tilted>0</tilted></_>
    <_>
      <rects>
        <_>
          0 5 2 16 -1.</_>
        <_>
          1 5 1 16 2.</_></rects>
      <tilted>0</tilted></_>
    <_>
      <rects>
        <_>
          0 5 6 13 -1.</_>
        <_>
          2 5 2 13 3.</_></rects>
      <tilted>0</tilted></_>
    <_>
      <rects>
        <_>
          0 5 6 15 -1.</_>
        <_>
          2 5 2 15 3.</_></rects>
      <tilted>0</tilted></_>
    <_>
      <rects>
        <_>
          0 5 22 18 -1.</_>
        <_>
          11 5 11 18 2.</_></rects>
      <tilted>0</tilted></_>
    <_>
      <rects>
        <_>
          0 6 24 10 -1.</_>
        <_>
          0 6 12 5 2.</_>
        <_>
          12 11 12 5 2.</_></rects>
      <tilted>0</tilted></_>
    <_>
      <rects>
        <_>
          0 7 24 14 -1.</_>
        <_>
          8 7 8 14 3.</_></rects>
      <tilted>0</tilted></_>
    <_>
      <rects>
        <_>
          0 7 24 15 -1.</_>
        <_>
          8 7 8 15 3.</_></rects>
      <tilted>0</tilted></_>
    <_>
      <rects>
        <_>
          0 8 2 8 -1.</_>
        <_>
          1 8 1 8 2.</_></rects>
      <tilted>0</tilted></_>
    <_>
      <rects>
        <_>
          0 8 6 12 -1.</_>
        <_>
          2 8 2 12 3.</_></rects>
      <tilted>0</tilted></_>
    <_>
      <rects>
        <_>
          0 8 8 10 -1.</_>
        <_>
          4 8 4 10 2.</_></rects>
      <tilted>0</tilted></_>
    <_>
      <rects>
        <_>
          0 9 8 10 -1.</_>
        <_>
          4 9 4 10 2.</_></rects>
      <tilted>0</tilted></_>
    <_>
      <rects>
        <_>
          0 10 9 5 -1.</_>
        <_>
          3 10 3 5 3.</_></rects>
      <tilted>0</tilted></_>
    <_>
      <rects>
        <_>
          0 12 22 11 -1.</_>
        <_>
          11 12 11 11 2.</_></rects>
      <tilted>0</tilted></_>
    <_>
      <rects>
        <_>
          0 14 10 5 -1.</_>
        <_>
          5 14 5 5 2.</_></rects>
      <tilted>0</tilted></_>
    <_>
      <rects>
        <_>
          0 15 8 1 -1.</_>
        <_>
          4 15 4 1 2.</_></rects>
      <tilted>0</tilted></_>
    <_>
      <rects>
        <_>
          0 18 1 6 -1.</_>
        <_>
          0 20 1 2 3.</_></rects>
      <tilted>0</tilted></_>
    <_>
      <rects>
        <_>
          0 19 1 3 -1.</_>
        <_>
          0 20 1 1 3.</_></rects>
      <tilted>0</tilted></_>
    <_>
      <rects>
        <_>
          0 21 12 3 -1.</_>
        <_>
          6 21 6 3 2.</_></rects>
      <tilted>0</tilted></_>
    <_>
      <rects>
        <_>
          0 22 24 2 -1.</_>
        <_>
          12 22 12 2 2.</_></rects>
      <tilted>0</tilted></_>
    <_>
      <rects>
        <_>
          0 23 10 1 -1.</_>
        <_>
          5 23 5 1 2.</_></rects>
      <tilted>0</tilted></_>
    <_>
      <rects>
        <_>
          0 23 14 1 -1.</_>
        <_>
          7 23 7 1 2.</_></rects>
      <tilted>0</tilted></_>
    <_>
      <rects>
        <_>
          0 23 24 1 -1.</_>
        <_>
          8 23 8 1 3.</_></rects>
      <tilted>0</tilted></_>
    <_>
      <rects>
        <_>
          1 0 8 3 -1.</_>
        <_>
          5 0 4 3 2.</_></rects>
      <tilted>0</tilted></_>
    <_>
      <rects>
        <_>
          1 0 15 1 -1.</_>
        <_>
          6 0 5 1 3.</_></rects>
      <tilted>0</tilted></_>
    <_>
      <rects>
        <_>
          1 0 21 1 -1.</_>
        <_>
          8 0 7 1 3.</_></rects>
      <tilted>0</tilted></_>
    <_>
      <rects>
        <_>
          1 13 12 3 -1.</_>
        <_>
          5 13 4 3 3.</_></rects>
      <tilted>0</tilted></_>
    <_>
      <rects>
        <_>
          1 18 17 6 -1.</_>
        <_>
          1 21 17 3 2.</_></rects>
      <tilted>0</tilted></_>
    <_>
      <rects>
        <_>
          1 23 12 1 -1.</_>
        <_>
          7 23 6 1 2.</_></rects>
      <tilted>0</tilted></_>
    <_>
      <rects>
        <_>
          1 23 14 1 -1.</_>
        <_>
          8 23 7 1 2.</_></rects>
      <tilted>0</tilted></_>
    <_>
      <rects>
        <_>
          2 0 21 3 -1.</_>
        <_>
          9 0 7 3 3.</_></rects>
      <tilted>0</tilted></_>
    <_>
      <rects>
        <_>
          2 0 22 14 -1.</_>
        <_>
          13 0 11 14 2.</_></rects>
      <tilted>0</tilted></_>
    <_>
      <rects>
        <_>
          2 0 22 24 -1.</_>
        <_>
          13 0 11 24 2.</_></rects>
      <tilted>0</tilted></_>
    <_>
      <rects>
        <_>
          2 0 15 12 -1.</_>
        <_>
          2 6 15 6 2.</_></rects>
      <tilted>0</tilted></_>
    <_>
      <rects>
        <_>
          2 0 21 24 -1.</_>
        <_>
          2 8 21 8 3.</_></rects>
      <tilted>0</tilted></_>
    <_>
      <rects>
        <_>
          2 2 22 16 -1.</_>
        <_>
          13 2 11 16 2.</_></rects>
      <tilted>0</tilted></_>
    <_>
      <rects>
        <_>
          2 3 17 21 -1.</_>
        <_>
          2 10 17 7 3.</_></rects>
      <tilted>0</tilted></_>
    <_>
      <rects>
        <_>
          2 16 10 2 -1.</_>
        <_>
          2 16 5 1 2.</_>
        <_>
          7 17 5 1 2.</_></rects>
      <tilted>0</tilted></_>
    <_>
      <rects>
        <_>
          2 18 15 6 -1.</_>
        <_>
          2 21 15 3 2.</_></rects>
      <tilted>0</tilted></_>
    <_>
      <rects>
        <_>
          3 0 13 24 -1.</_>
        <_>
          3 8 13 8 3.</_></rects>
      <tilted>0</tilted></_>
    <_>
      <rects>
        <_>
          3 0 13 20 -1.</_>
        <_>
          3 10 13 10 2.</_></rects>
      <tilted>0</tilted></_>
    <_>
      <rects>
        <_>
          3 0 15 24 -1.</_>
        <_>
          3 8 15 8 3.</_></rects>
      <tilted>0</tilted></_>
    <_>
      <rects>
        <_>
          3 1 17 21 -1.</_>
        <_>
          3 8 17 7 3.</_></rects>
      <tilted>0</tilted></_>
    <_>
      <rects>
        <_>
          3 3 16 21 -1.</_>
        <_>
          3 10 16 7 3.</_></rects>
      <tilted>0</tilted></_>
    <_>
      <rects>
        <_>
          3 3 20 21 -1.</_>
        <_>
          3 10 20 7 3.</_></rects>
      <tilted>0</tilted></_>
    <_>
      <rects>
        <_>
          3 6 15 18 -1.</_>
        <_>
          3 12 15 6 3.</_></rects>
      <tilted>0</tilted></_>
    <_>
      <rects>
        <_>
          3 13 18 4 -1.</_>
        <_>
          3 13 9 2 2.</_>
        <_>
          12 15 9 2 2.</_></rects>
      <tilted>0</tilted></_>
    <_>
      <rects>
        <_>
          3 23 8 1 -1.</_>
        <_>
          7 23 4 1 2.</_></rects>
      <tilted>0</tilted></_>
    <_>
      <rects>
        <_>
          3 23 12 1 -1.</_>
        <_>
          9 23 6 1 2.</_></rects>
      <tilted>0</tilted></_>
    <_>
      <rects>
        <_>
          4 0 16 22 -1.</_>
        <_>
          12 0 8 22 2.</_></rects>
      <tilted>0</tilted></_>
    <_>
      <rects>
        <_>
          4 0 20 21 -1.</_>
        <_>
          14 0 10 21 2.</_></rects>
      <tilted>0</tilted></_>
    <_>
      <rects>
        <_>
          4 3 20 21 -1.</_>
        <_>
          14 3 10 21 2.</_></rects>
      <tilted>0</tilted></_>
    <_>
      <rects>
        <_>
          4 6 16 14 -1.</_>
        <_>
          4 6 8 7 2.</_>
        <_>
          12 13 8 7 2.</_></rects>
      <tilted>0</tilted></_>
    <_>
      <rects>
        <_>
          4 12 19 12 -1.</_>
        <_>
          4 18 19 6 2.</_></rects>
      <tilted>0</tilted></_>
    <_>
      <rects>
        <_>
          4 14 15 10 -1.</_>
        <_>
          4 19 15 5 2.</_></rects>
      <tilted>0</tilted></_>
    <_>
      <rects>
        <_>
          5 0 5 18 -1.</_>
        <_>
          5 6 5 6 3.</_></rects>
      <tilted>0</tilted></_>
    <_>
      <rects>
        <_>
          5 2 15 10 -1.</_>
        <_>
          5 7 15 5 2.</_></rects>
      <tilted>0</tilted></_>
    <_>
      <rects>
        <_>
          5 2 15 18 -1.</_>
        <_>
          5 11 15 9 2.</_></rects>
      <tilted>0</tilted></_>
    <_>
      <rects>
        <_>
          5 4 17 18 -1.</_>
        <_>
          5 13 17 9 2.</_></rects>
      <tilted>0</tilted></_>
    <_>
      <rects>
        <_>
          6 0 15 1 -1.</_>
        <_>
          11 0 5 1 3.</_></rects>
      <tilted>0</tilted></_>
    <_>
      <rects>
        <_>
          6 0 18 20 -1.</_>
        <_>
          12 0 6 20 3.</_></rects>
      <tilted>0</tilted></_>
    <_>
      <rects>
        <_>
          6 0 13 18 -1.</_>
        <_>
          6 9 13 9 2.</_></rects>
      <tilted>0</tilted></_>
    <_>
      <rects>
        <_>
          6 7 10 8 -1.</_>
        <_>
          6 7 5 4 2.</_>
        <_>
          11 11 5 4 2.</_></rects>
      <tilted>0</tilted></_>
    <_>
      <rects>
        <_>
          6 10 6 4 -1.</_>
        <_>
          6 10 3 2 2.</_>
        <_>
          9 12 3 2 2.</_></rects>
      <tilted>0</tilted></_>
    <_>
      <rects>
        <_>
          7 0 1 6 -1.</_>
        <_>
          7 3 1 3 2.</_></rects>
      <tilted>0</tilted></_>
    <_>
      <rects>
        <_>
          7 0 9 19 -1.</_>
        <_>
          10 0 3 19 3.</_></rects>
      <tilted>0</tilted></_>
    <_>
      <rects>
        <_>
          7 0 5 18 -1.</_>
        <_>
          7 9 5 9 2.</_></rects>
      <tilted>0</tilted></_>
    <_>
      <rects>
        <_>
          7 12 11 12 -1.</_>
        <_>
          7 16 11 4 3.</_></rects>
      <tilted>0</tilted></_>
    <_>
      <rects>
        <_>
          7 13 2 4 -1.</_>
        <_>
          7 13 1 2 2.</_>
        <_>
          8 15 1 2 2.</_></rects>
      <tilted>0</tilted></_>
    <_>
      <rects>
        <_>
          7 14 4 4 -1.</_>
        <_>
          9 14 2 4 2.</_></rects>
      <tilted>0</tilted></_>
    <_>
      <rects>
        <_>
          7 14 12 9 -1.</_>
        <_>
          7 17 12 3 3.</_></rects>
      <tilted>0</tilted></_>
    <_>
      <rects>
        <_>
          7 16 4 4 -1.</_>
        <_>
          7 16 2 2 2.</_>
        <_>
          9 18 2 2 2.</_></rects>
      <tilted>0</tilted></_>
    <_>
      <rects>
        <_>
          7 16 4 8 -1.</_>
        <_>
          7 20 4 4 2.</_></rects>
      <tilted>0</tilted></_>
    <_>
      <rects>
        <_>
          7 18 11 6 -1.</_>
        <_>
          7 21 11 3 2.</_></rects>
      <tilted>0</tilted></_>
    <_>
      <rects>
        <_>
          7 23 12 1 -1.</_>
        <_>
          11 23 4 1 3.</_></rects>
      <tilted>0</tilted></_>
    <_>
      <rects>
        <_>
          8 0 9 17 -1.</_>
        <_>
          11 0 3 17 3.</_></rects>
      <tilted>0</tilted></_>
    <_>
      <rects>
        <_>
          8 0 9 24 -1.</_>
        <_>
          11 0 3 24 3.</_></rects>
      <tilted>0</tilted></_>
    <_>
      <rects>
        <_>
          8 0 16 5 -1.</_>
        <_>
          16 0 8 5 2.</_></rects>
      <tilted>0</tilted></_>
    <_>
      <rects>
        <_>
          8 0 15 10 -1.</_>
        <_>
          8 5 15 5 2.</_></rects>
      <tilted>0</tilted></_>
    <_>
      <rects>
        <_>
          8 1 2 8 -1.</_>
        <_>
          9 1 1 8 2.</_></rects>
      <tilted>0</tilted></_>
    <_>
      <rects>
        <_>
          8 4 2 16 -1.</_>
        <_>
          9 4 1 16 2.</_></rects>
      <tilted>0</tilted></_>
    <_>
      <rects>
        <_>
          8 6 2 16 -1.</_>
        <_>
          8 6 1 8 2.</_>
        <_>
          9 14 1 8 2.</_></rects>
      <tilted>0</tilted></_>
    <_>
      <rects>
        <_>
          8 8 6 8 -1.</_>
        <_>
          8 8 3 4 2.</_>
        <_>
          11 12 3 4 2.</_></rects>
      <tilted>0</tilted></_>
    <_>
      <rects>
        <_>
          8 9 6 6 -1.</_>
        <_>
          8 9 3 3 2.</_>
        <_>
          11 12 3 3 2.</_></rects>
      <tilted>0</tilted></_>
    <_>
      <rects>
        <_>
          8 13 2 7 -1.</_>
        <_>
          9 13 1 7 2.</_></rects>
      <tilted>0</tilted></_>
    <_>
      <rects>
        <_>
          8 23 6 1 -1.</_>
        <_>
          10 23 2 1 3.</_></rects>
      <tilted>0</tilted></_>
    <_>
      <rects>
        <_>
          8 23 16 1 -1.</_>
        <_>
          16 23 8 1 2.</_></rects>
      <tilted>0</tilted></_>
    <_>
      <rects>
        <_>
          9 1 12 1 -1.</_>
        <_>
          15 1 6 1 2.</_></rects>
      <tilted>0</tilted></_>
    <_>
      <rects>
        <_>
          9 6 6 9 -1.</_>
        <_>
          12 6 3 9 2.</_></rects>
      <tilted>0</tilted></_>
    <_>
      <rects>
        <_>
          9 9 15 13 -1.</_>
        <_>
          14 9 5 13 3.</_></rects>
      <tilted>0</tilted></_>
    <_>
      <rects>
        <_>
          9 15 1 4 -1.</_>
        <_>
          9 17 1 2 2.</_></rects>
      <tilted>0</tilted></_>
    <_>
      <rects>
        <_>
          10 10 4 3 -1.</_>
        <_>
          12 10 2 3 2.</_></rects>
      <tilted>0</tilted></_>
    <_>
      <rects>
        <_>
          10 11 4 8 -1.</_>
        <_>
          10 11 2 4 2.</_>
        <_>
          12 15 2 4 2.</_></rects>
      <tilted>0</tilted></_>
    <_>
      <rects>
        <_>
          10 15 6 2 -1.</_>
        <_>
          10 15 3 1 2.</_>
        <_>
          13 16 3 1 2.</_></rects>
      <tilted>0</tilted></_>
    <_>
      <rects>
        <_>
          10 15 14 9 -1.</_>
        <_>
          17 15 7 9 2.</_></rects>
      <tilted>0</tilted></_>
    <_>
      <rects>
        <_>
          10 16 9 8 -1.</_>
        <_>
          10 20 9 4 2.</_></rects>
      <tilted>0</tilted></_>
    <_>
      <rects>
        <_>
          11 0 3 18 -1.</_>
        <_>
          11 9 3 9 2.</_></rects>
      <tilted>0</tilted></_>
    <_>
      <rects>
        <_>
          11 10 6 4 -1.</_>
        <_>
          11 10 3 2 2.</_>
        <_>
          14 12 3 2 2.</_></rects>
      <tilted>0</tilted></_>
    <_>
      <rects>
        <_>
          11 12 2 10 -1.</_>
        <_>
          11 12 1 5 2.</_>
        <_>
          12 17 1 5 2.</_></rects>
      <tilted>0</tilted></_>
    <_>
      <rects>
        <_>
          11 16 1 2 -1.</_>
        <_>
          11 17 1 1 2.</_></rects>
      <tilted>0</tilted></_>
    <_>
      <rects>
        <_>
          12 1 2 17 -1.</_>
        <_>
          13 1 1 17 2.</_></rects>
      <tilted>0</tilted></_>
    <_>
      <rects>
        <_>
          12 8 12 13 -1.</_>
        <_>
          18 8 6 13 2.</_></rects>
      <tilted>0</tilted></_>
    <_>
      <rects>
        <_>
          12 11 2 8 -1.</_>
        <_>
          13 11 1 8 2.</_></rects>
      <tilted>0</tilted></_>
    <_>
      <rects>
        <_>
          12 13 2 4 -1.</_>
        <_>
          12 13 1 2 2.</_>
        <_>
          13 15 1 2 2.</_></rects>
      <tilted>0</tilted></_>
    <_>
      <rects>
        <_>
          13 7 2 8 -1.</_>
        <_>
          13 7 1 4 2.</_>
        <_>
          14 11 1 4 2.</_></rects>
      <tilted>0</tilted></_>
    <_>
      <rects>
        <_>
          13 12 2 12 -1.</_>
        <_>
          14 12 1 12 2.</_></rects>
      <tilted>0</tilted></_>
    <_>
      <rects>
        <_>
          13 13 2 9 -1.</_>
        <_>
          14 13 1 9 2.</_></rects>
      <tilted>0</tilted></_>
    <_>
      <rects>
        <_>
          13 18 8 6 -1.</_>
        <_>
          13 21 8 3 2.</_></rects>
      <tilted>0</tilted></_>
    <_>
      <rects>
        <_>
          14 0 1 16 -1.</_>
        <_>
          14 8 1 8 2.</_></rects>
      <tilted>0</tilted></_>
    <_>
      <rects>
        <_>
          14 0 10 8 -1.</_>
        <_>
          19 0 5 8 2.</_></rects>
      <tilted>0</tilted></_>
    <_>
      <rects>
        <_>
          14 0 10 22 -1.</_>
        <_>
          19 0 5 22 2.</_></rects>
      <tilted>0</tilted></_>
    <_>
      <rects>
        <_>
          14 7 3 6 -1.</_>
        <_>
          15 7 1 6 3.</_></rects>
      <tilted>0</tilted></_>
    <_>
      <rects>
        <_>
          14 15 2 8 -1.</_>
        <_>
          15 15 1 8 2.</_></rects>
      <tilted>0</tilted></_>
    <_>
      <rects>
        <_>
          15 0 2 20 -1.</_>
        <_>
          15 10 2 10 2.</_></rects>
      <tilted>0</tilted></_>
    <_>
      <rects>
        <_>
          15 0 5 12 -1.</_>
        <_>
          15 4 5 4 3.</_></rects>
      <tilted>0</tilted></_>
    <_>
      <rects>
        <_>
          15 2 9 18 -1.</_>
        <_>
          18 2 3 18 3.</_></rects>
      <tilted>0</tilted></_>
    <_>
      <rects>
        <_>
          15 10 2 8 -1.</_>
        <_>
          16 10 1 8 2.</_></rects>
      <tilted>0</tilted></_>
    <_>
      <rects>
        <_>
          15 15 4 2 -1.</_>
        <_>
          15 15 2 1 2.</_>
        <_>
          17 16 2 1 2.</_></rects>
      <tilted>0</tilted></_>
    <_>
      <rects>
        <_>
          16 4 2 17 -1.</_>
        <_>
          17 4 1 17 2.</_></rects>
      <tilted>0</tilted></_>
    <_>
      <rects>
        <_>
          16 8 2 9 -1.</_>
        <_>
          17 8 1 9 2.</_></rects>
      <tilted>0</tilted></_>
    <_>
      <rects>
        <_>
          16 14 8 2 -1.</_>
        <_>
          20 14 4 2 2.</_></rects>
      <tilted>0</tilted></_>
    <_>
      <rects>
        <_>
          18 0 3 3 -1.</_>
        <_>
          19 0 1 3 3.</_></rects>
      <tilted>0</tilted></_>
    <_>
      <rects>
        <_>
          18 0 6 1 -1.</_>
        <_>
          20 0 2 1 3.</_></rects>
      <tilted>0</tilted></_>
    <_>
      <rects>
        <_>
          18 0 6 2 -1.</_>
        <_>
          20 0 2 2 3.</_></rects>
      <tilted>0</tilted></_>
    <_>
      <rects>
        <_>
          18 4 6 18 -1.</_>
        <_>
          20 4 2 18 3.</_></rects>
      <tilted>0</tilted></_>
    <_>
      <rects>
        <_>
          18 6 6 14 -1.</_>
        <_>
          21 6 3 14 2.</_></rects>
      <tilted>0</tilted></_>
    <_>
      <rects>
        <_>
          20 5 4 17 -1.</_>
        <_>
          22 5 2 17 2.</_></rects>
      <tilted>0</tilted></_>
    <_>
      <rects>
        <_>
          21 0 2 22 -1.</_>
        <_>
          21 11 2 11 2.</_></rects>
      <tilted>0</tilted></_>
    <_>
      <rects>
        <_>
          22 5 2 14 -1.</_>
        <_>
          23 5 1 14 2.</_></rects>
      <tilted>0</tilted></_>
    <_>
      <rects>
        <_>
          22 7 2 15 -1.</_>
        <_>
          22 12 2 5 3.</_></rects>
      <tilted>0</tilted></_>
    <_>
      <rects>
        <_>
          22 20 2 4 -1.</_>
        <_>
          22 20 1 2 2.</_>
        <_>
          23 22 1 2 2.</_></rects>
      <tilted>0</tilted></_>
    <_>
      <rects>
        <_>
          23 0 1 24 -1.</_>
        <_>
          23 12 1 12 2.</_></rects>
      <tilted>0</tilted></_>
    <_>
      <rects>
        <_>
          23 1 1 21 -1.</_>
        <_>
          23 8 1 7 3.</_></rects>
      <tilted>0</tilted></_>
    <_>
      <rects>
        <_>
          23 3 1 8 -1.</_>
        <_>
          23 7 1 4 2.</_></rects>
      <tilted>0</tilted></_>
    <_>
      <rects>
        <_>
          23 9 1 15 -1.</_>
        <_>
          23 14 1 5 3.</_></rects>
      <tilted>0</tilted></_></features></cascade>
</opencv_storage>
